# stan_version_major = 2
# stan_version_minor = 30
# stan_version_patch = 0
# model = surveyunbias_model
# start_datetime = 2023-01-12 09:08:22 UTC
# method = variational
#   variational
#     algorithm = meanfield (Default)
#       meanfield
#     iter = 10000 (Default)
#     grad_samples = 1 (Default)
#     elbo_samples = 100 (Default)
#     eta = 1 (Default)
#     adapt
#       engaged = 1 (Default)
#       iter = 50 (Default)
#     tol_rel_obj = 0.01 (Default)
#     eval_elbo = 100 (Default)
#     output_samples = 1000 (Default)
# id = 1 (Default)
# data
#   file = examples\surveyunbias\surveyunbias.data.R
# init = 2 (Default)
# random
#   seed = 2892388467 (Default)
# output
#   file = examples\surveyunbias\surveyunbiasvar.csv
#   diagnostic_file =  (Default)
#   refresh = 100 (Default)
#   sig_figs = -1 (Default)
#   profile_file = profile.csv (Default)
# num_threads = 1 (Default)
# stanc_version = stanc3 v2.30.1
# stancflags = 
lp__,log_p__,log_g__,bias.1,bias.2
# Stepsize adaptation complete.
# eta = 1
0,0,0,0.863283,0.486974
0,-6.11916,-0.891883,0.559915,0.656388
0,-5.83771,-0.561696,0.681862,0.290001
0,-5.81669,-0.220891,0.899105,0.30636
0,-5.34124,-0.18434,0.742044,0.44976
0,-6.27547,-0.624004,0.963273,0.577761
0,-6.56673,-0.692716,0.930617,0.207413
0,-5.5008,-0.233298,0.798213,0.663491
0,-8.23562,-2.04306,0.967899,0.108838
0,-7.24522,-1.32704,0.960516,0.822935
0,-8.35566,-2.42636,0.899713,0.93611
0,-6.45177,-0.817112,0.970815,0.557477
0,-5.28785,-0.057949,0.809814,0.538192
0,-5.7049,-0.220172,0.885366,0.680507
0,-5.72394,-0.58923,0.605615,0.543045
0,-6.41015,-0.774571,0.969805,0.54301
0,-6.63676,-1.22562,0.45902,0.372188
0,-8.042,-1.96614,0.975609,0.140351
0,-5.98247,-0.652656,0.685079,0.256475
0,-6.988,-1.10148,0.948817,0.817557
0,-6.07586,-0.426235,0.877072,0.231159
0,-5.6754,-0.129367,0.903265,0.361329
0,-6.54513,-0.846621,0.83346,0.15901
0,-7.76319,-1.85045,0.974922,0.836184
0,-6.79441,-1.20423,0.718994,0.142403
0,-5.51372,-0.248315,0.794623,0.6677
0,-5.46542,-0.253493,0.768566,0.6453
0,-7.15416,-1.59209,0.984171,0.356528
0,-6.74975,-1.09821,0.976979,0.38299
0,-5.62288,-0.472062,0.645756,0.411822
0,-8.60277,-2.61766,0.856676,0.0514118
0,-6.57625,-0.833265,0.962138,0.70686
0,-12.0542,-7.05213,0.996234,0.0413199
0,-10.5197,-4.29751,0.973334,0.0347985
0,-6.58805,-1.22336,0.454652,0.583255
0,-5.52926,-0.297289,0.769798,0.668585
0,-6.39696,-0.623013,0.892482,0.193907
0,-6.41408,-0.688895,0.956167,0.69631
0,-5.54713,-0.215814,0.827754,0.674434
0,-8.42666,-2.32206,0.97843,0.119528
0,-7.553,-1.86587,0.364596,0.684005
0,-5.46777,-0.254269,0.769191,0.646435
0,-5.7721,-0.193293,0.898821,0.318689
0,-6.36683,-1.07476,0.509875,0.649302
0,-6.30225,-0.639765,0.962601,0.605496
0,-7.61225,-2.50087,0.991808,0.483612
0,-10.267,-4.45568,0.871714,0.0221539
0,-7.21202,-1.44234,0.979096,0.267536
0,-5.3296,-0.0360385,0.839811,0.558215
0,-7.202,-1.45359,0.976873,0.74881
0,-5.86583,-0.282838,0.917022,0.673807
0,-5.62172,-0.174471,0.850731,0.31325
0,-10.5173,-3.66869,0.150394,0.521634
0,-5.79897,-0.213073,0.937104,0.505712
0,-5.85353,-0.237112,0.937508,0.42135
0,-5.68588,-0.166594,0.879704,0.318435
0,-5.82716,-0.668274,0.57837,0.490114
0,-6.80619,-1.31491,0.514869,0.235786
0,-5.97193,-0.538738,0.819961,0.770208
0,-6.68576,-1.23739,0.504536,0.270224
0,-6.50262,-0.67598,0.905647,0.18968
0,-5.36193,-0.0765443,0.831228,0.5932
0,-5.60143,-0.161322,0.85101,0.319387
0,-6.95603,-1.44202,0.407602,0.407266
0,-5.37733,-0.0737332,0.822973,0.392883
0,-6.29389,-0.587722,0.950896,0.688353
0,-6.33603,-0.671833,0.84398,0.18312
0,-5.88128,-0.278535,0.939846,0.578323
0,-6.0803,-0.718271,0.685034,0.238471
0,-5.80081,-0.602329,0.621254,0.364196
0,-5.55657,-0.271778,0.799039,0.681309
0,-7.29423,-1.65888,0.496286,0.182376
0,-7.80084,-1.80197,0.976765,0.167027
0,-5.91949,-0.607664,0.749432,0.756198
0,-5.85086,-0.354488,0.870137,0.731083
0,-9.60167,-5.03248,0.996753,0.176343
0,-9.52865,-3.62519,0.506812,0.049756
0,-7.65933,-2.10986,0.986563,0.739818
0,-5.53048,-0.252745,0.799279,0.673269
0,-6.72938,-0.881429,0.963089,0.263377
0,-8.59281,-2.84037,0.986679,0.858897
0,-5.92575,-0.653827,0.647381,0.294133
0,-6.89006,-1.46069,0.589079,0.826463
0,-5.35529,-0.0700045,0.817677,0.403718
0,-5.29679,-0.017601,0.831977,0.475661
0,-5.70758,-0.539603,0.629033,0.395654
0,-6.87551,-0.946641,0.909163,0.152148
0,-5.6309,-0.329267,0.796423,0.701927
0,-6.32034,-0.542781,0.908433,0.216916
0,-5.71819,-0.167713,0.924482,0.577102
0,-6.67485,-0.937176,0.966743,0.703825
0,-5.91173,-0.474074,0.785519,0.239397
0,-6.88854,-1.38198,0.455483,0.296421
0,-6.22647,-0.599204,0.84061,0.196005
0,-6.20332,-0.520542,0.949715,0.666249
0,-7.74296,-2.22845,0.988519,0.273983
0,-6.73817,-0.911762,0.950269,0.781195
0,-8.97319,-2.77982,0.327477,0.150745
0,-8.99998,-3.23235,0.728109,0.0419469
0,-7.08492,-1.56447,0.416658,0.678108
0,-5.69265,-0.146812,0.896783,0.340946
0,-5.9512,-0.333298,0.927067,0.67378
0,-5.4992,-0.103808,0.847969,0.352037
0,-9.79116,-3.23541,0.190091,0.641404
0,-5.87904,-0.276564,0.941367,0.559267
0,-6.64033,-0.831973,0.940288,0.787561
0,-8.2652,-2.58855,0.51293,0.903284
0,-6.04771,-0.360662,0.906545,0.262299
0,-6.55848,-0.844163,0.969691,0.358694
0,-6.14983,-0.698484,0.805162,0.797612
0,-7.37467,-1.70952,0.359652,0.410004
0,-6.19429,-0.600559,0.827271,0.198066
0,-8.1159,-2.31282,0.856899,0.933329
0,-5.83276,-0.500523,0.730102,0.266469
0,-5.90124,-0.268122,0.939706,0.406375
0,-6.08925,-0.450561,0.9567,0.499769
0,-5.62284,-0.0939962,0.910363,0.41222
0,-7.98098,-1.90034,0.974382,0.141784
0,-7.23687,-1.67212,0.748695,0.893115
0,-9.19546,-3.21084,0.46037,0.0695463
0,-5.58462,-0.0778002,0.901964,0.402902
0,-6.76964,-0.97017,0.961476,0.751505
0,-6.30216,-0.626284,0.960172,0.631706
0,-6.59108,-0.929408,0.865109,0.839438
0,-5.50361,-0.0872006,0.859647,0.360326
0,-5.27722,-0.0420956,0.812474,0.503665
0,-5.40864,-0.271618,0.707896,0.445881
0,-5.84149,-0.22608,0.935151,0.410574
0,-8.10674,-2.46127,0.528413,0.899305
0,-6.55162,-1.01043,0.807184,0.843403
0,-7.1401,-1.56935,0.378381,0.475855
0,-9.01871,-3.21963,0.591155,0.0519517
0,-5.88117,-0.277809,0.942348,0.546963
0,-7.53489,-1.78344,0.982961,0.241622
0,-5.56178,-0.0981659,0.874779,0.354732
0,-6.4146,-1.01375,0.723809,0.820979
0,-6.5566,-0.82665,0.848405,0.160139
0,-5.69686,-0.17443,0.908359,0.634374
0,-5.534,-0.0555816,0.895185,0.411986
0,-6.03988,-0.804133,0.632386,0.720731
0,-6.50254,-0.833214,0.968789,0.628263
0,-6.28099,-0.58847,0.954619,0.664786
0,-6.8063,-1.3688,0.425725,0.588197
0,-5.72762,-0.177394,0.92227,0.597073
0,-6.40383,-0.812484,0.791978,0.171694
0,-5.56274,-0.0653872,0.902438,0.419697
0,-5.70709,-0.202767,0.895769,0.665829
0,-5.33198,-0.0249442,0.846319,0.548726
0,-6.41488,-0.843022,0.838973,0.826733
0,-5.55589,-0.433822,0.664091,0.582381
0,-5.91098,-0.298074,0.945815,0.505095
0,-5.53735,-0.300296,0.771701,0.671724
0,-5.28809,-0.0726009,0.794624,0.459691
0,-6.31358,-0.635692,0.964359,0.41295
0,-6.66754,-0.975607,0.97097,0.667369
0,-6.20795,-0.882349,0.59101,0.278346
0,-9.35383,-3.50028,0.539377,0.0495994
0,-7.39393,-1.48533,0.975555,0.211313
0,-8.31997,-2.66272,0.783648,0.941994
0,-6.28525,-0.631066,0.963233,0.585714
0,-6.31393,-0.520393,0.926301,0.240556
0,-5.93267,-0.738141,0.563214,0.433787
0,-7.71593,-2.08287,0.985185,0.767018
0,-8.16418,-2.2084,0.341145,0.232805
0,-5.93966,-0.280249,0.917782,0.306222
0,-7.33509,-1.68745,0.489716,0.182316
0,-6.92926,-1.08632,0.970252,0.260583
0,-5.57014,-0.0685689,0.903723,0.419828
0,-5.53769,-0.368127,0.689564,0.385084
0,-5.47562,-0.354896,0.675501,0.46772
0,-5.43294,-0.143503,0.822553,0.63436
0,-7.88438,-1.74248,0.96571,0.129015
0,-6.88401,-1.34362,0.768448,0.870653
0,-6.08886,-0.690022,0.716111,0.224855
0,-7.45043,-1.50804,0.924955,0.883585
0,-6.81919,-0.997293,0.918118,0.836099
0,-6.12186,-0.451567,0.939452,0.685193
0,-5.76296,-0.585961,0.660198,0.671432
0,-6.53221,-1.18059,0.455933,0.534052
0,-5.48864,-0.0461255,0.894473,0.551323
0,-7.44053,-1.74304,0.394753,0.276047
0,-5.9131,-0.262527,0.929755,0.348197
0,-6.08019,-0.426185,0.945567,0.643904
0,-7.93898,-2.33943,0.56672,0.900849
0,-5.83046,-0.240405,0.937748,0.554845
0,-5.61914,-0.451895,0.660437,0.385858
0,-5.34867,-0.0407146,0.833334,0.417629
0,-6.46219,-0.706544,0.92718,0.782253
0,-5.50432,-0.385444,0.677147,0.571829
0,-6.79042,-0.863887,0.920548,0.168925
0,-5.64714,-0.107822,0.909913,0.395145
0,-6.61006,-0.987045,0.975633,0.445075
0,-5.66178,-0.114298,0.914612,0.406226
0,-8.96019,-3.19994,0.701291,0.044105
0,-6.17082,-0.442062,0.907169,0.239819
0,-5.7037,-0.336043,0.823347,0.717617
0,-5.90029,-0.292846,0.942652,0.563821
0,-5.3536,-0.0723139,0.815704,0.404083
0,-6.78031,-1.22088,0.980055,0.539245
0,-6.0384,-0.486546,0.873002,0.764907
0,-6.02027,-0.822349,0.546021,0.568222
0,-5.58791,-0.16822,0.868729,0.662043
0,-8.57246,-3.67711,0.994911,0.265111
0,-7.57701,-1.82998,0.358061,0.327657
0,-6.92038,-1.24375,0.976568,0.686411
0,-8.40205,-2.16154,0.962096,0.091498
0,-5.92392,-0.310321,0.946385,0.524945
0,-5.62203,-0.418662,0.727936,0.679984
0,-7.13727,-1.31481,0.975787,0.255656
0,-5.67523,-0.141771,0.919836,0.574347
0,-5.7119,-0.245149,0.843001,0.28601
0,-9.90901,-3.30783,0.183931,0.6388
0,-5.85482,-0.589212,0.725596,0.736403
0,-5.73568,-0.159815,0.928292,0.438682
0,-5.37405,-0.00218111,0.871334,0.499308
0,-8.55229,-2.47691,0.943543,0.929311
0,-5.59671,-0.111818,0.879704,0.34811
0,-8.29233,-2.33188,0.977931,0.872309
0,-7.47845,-1.80894,0.359924,0.643626
0,-5.95349,-0.446766,0.86142,0.755979
0,-6.45516,-0.738708,0.904273,0.805395
0,-5.81428,-0.220624,0.938181,0.480955
0,-5.3495,-0.000181907,0.861896,0.481695
0,-6.2781,-0.8903,0.739566,0.807876
0,-6.71124,-1.26847,0.462956,0.33303
0,-6.49602,-1.0017,0.695131,0.176919
0,-6.0928,-0.719587,0.762639,0.78682
0,-8.89628,-2.74409,0.342772,0.143401
0,-6.61862,-0.98684,0.974283,0.599737
0,-6.84261,-1.4005,0.437451,0.649606
0,-8.19376,-1.97482,0.959171,0.0992847
0,-8.19074,-2.26129,0.30192,0.677176
0,-7.31396,-1.26535,0.958057,0.164297
0,-5.64876,-0.41244,0.748274,0.696842
0,-6.16868,-0.514774,0.863845,0.210497
0,-6.09611,-0.469896,0.903665,0.750571
0,-6.32156,-0.534065,0.943856,0.278254
0,-5.46932,-0.0422993,0.889219,0.557771
0,-7.31186,-1.77136,0.493954,0.818023
0,-11.7455,-6.09193,0.46715,0.0179959
0,-5.47979,-0.258489,0.772194,0.65197
0,-5.36972,-0.241864,0.71593,0.484583
0,-7.53886,-1.51498,0.895669,0.0987685
0,-6.89086,-1.36231,0.982386,0.468204
0,-5.77734,-0.199221,0.934995,0.51802
0,-7.18852,-1.26147,0.941496,0.849035
0,-5.37108,-0.0823875,0.831702,0.598612
0,-8.38801,-2.37144,0.276823,0.636037
0,-6.96804,-1.5172,0.527493,0.799291
0,-7.86639,-1.98682,0.978185,0.833838
0,-5.426,-0.309232,0.696616,0.54261
0,-6.48784,-0.785991,0.842762,0.166105
0,-5.45072,-0.125389,0.839585,0.633863
0,-6.33107,-0.687636,0.966626,0.553154
0,-5.52387,-0.410376,0.656773,0.505531
0,-8.38379,-2.407,0.913804,0.933977
0,-9.2856,-3.05603,0.97735,0.0722052
0,-6.91409,-0.987701,0.960319,0.21999
0,-7.07514,-1.4701,0.660658,0.131745
0,-5.73987,-0.197799,0.913352,0.638158
0,-6.7281,-0.934314,0.913201,0.830444
0,-7.40957,-1.73781,0.473457,0.185788
0,-6.11684,-0.450999,0.955385,0.419892
0,-5.94239,-0.405697,0.83835,0.237965
0,-6.12957,-0.620123,0.840108,0.790951
0,-8.80986,-3.24282,0.68822,0.951449
0,-5.84378,-0.304438,0.858094,0.263514
0,-5.98304,-0.311883,0.912608,0.285376
0,-6.34331,-0.624308,0.951418,0.699553
0,-5.92004,-0.688948,0.672326,0.723019
0,-5.42906,-0.0197002,0.884607,0.528713
0,-6.46925,-0.681402,0.958453,0.300714
0,-9.00471,-3.24505,0.657536,0.045911
0,-6.39503,-0.575122,0.927204,0.228283
0,-5.92645,-0.312779,0.943179,0.580114
0,-7.71288,-1.78522,0.972968,0.837874
0,-7.26293,-1.32027,0.944938,0.851611
0,-5.65132,-0.426979,0.696798,0.331752
0,-8.82903,-2.84275,0.980299,0.900363
0,-6.52557,-0.855294,0.820637,0.159737
0,-5.31248,-0.164299,0.747897,0.498789
0,-5.84602,-0.68028,0.604901,0.627308
0,-7.66284,-1.96796,0.392051,0.762886
0,-8.92327,-2.68787,0.97404,0.082286
0,-5.35536,-0.100517,0.815092,0.597205
0,-9.22143,-3.35798,0.436835,0.924918
0,-7.31488,-1.37066,0.956509,0.838803
0,-5.68526,-0.552043,0.62791,0.587785
0,-5.72064,-0.515278,0.704518,0.694442
0,-8.07091,-2.19491,0.883686,0.928514
0,-6.55702,-0.689745,0.943092,0.230946
0,-6.87441,-1.2067,0.770171,0.129965
0,-6.96249,-1.39598,0.982308,0.398689
0,-5.67738,-0.14249,0.920444,0.571993
0,-8.84039,-3.27162,0.990229,0.854773
0,-7.09682,-1.28331,0.975553,0.261971
0,-5.32285,-0.173835,0.74973,0.540057
0,-5.30049,-0.0133262,0.836108,0.479503
0,-5.84502,-0.624944,0.683659,0.712955
0,-6.72629,-0.881018,0.963296,0.264995
0,-5.6698,-0.15999,0.90525,0.631128
0,-5.99524,-0.362011,0.941571,0.630848
0,-6.20305,-0.746236,0.735565,0.202793
0,-8.49086,-2.23396,0.954183,0.0799155
0,-6.32692,-0.571593,0.954688,0.320895
0,-6.50085,-0.801372,0.891103,0.819517
0,-5.56527,-0.271023,0.771004,0.319763
0,-5.63478,-0.118434,0.915241,0.57034
0,-5.88899,-0.255039,0.93651,0.391126
0,-5.46333,-0.031883,0.881518,0.418908
0,-7.01016,-1.45715,0.498477,0.218463
0,-5.86669,-0.494686,0.751095,0.253191
0,-8.73364,-2.55989,0.241429,0.500533
0,-6.80895,-1.30458,0.565911,0.195796
0,-11.4322,-5.80673,0.91131,0.0134943
0,-5.34791,-0.217487,0.727357,0.517249
0,-5.35584,-0.000157364,0.865023,0.491271
0,-5.68825,-0.273469,0.817801,0.285102
0,-7.15459,-1.67326,0.608216,0.859562
0,-5.92651,-0.640795,0.726371,0.75071
0,-6.17355,-0.520756,0.957324,0.594271
0,-7.38253,-1.7823,0.983862,0.717203
0,-9.51325,-3.28314,0.978285,0.0651914
0,-6.10244,-0.881779,0.526235,0.542905
0,-6.41315,-1.10753,0.500421,0.64565
0,-5.37056,-0.175876,0.774994,0.603008
0,-6.0714,-0.595117,0.778086,0.214426
0,-5.41664,-0.00894366,0.881602,0.471979
0,-5.5626,-0.081358,0.886953,0.374469
0,-6.52228,-0.857713,0.971831,0.410006
0,-6.98923,-1.15551,0.965213,0.774365
0,-8.33844,-2.32176,0.97429,0.885224
0,-9.71915,-4.02409,0.649245,0.0320893
0,-6.50648,-1.17421,0.532786,0.725407
0,-5.39512,-0.258104,0.725427,0.57541
0,-6.60578,-0.997189,0.975558,0.553206
0,-5.66283,-0.136935,0.916867,0.582909
0,-6.90153,-1.29735,0.980658,0.386735
0,-7.22661,-1.18648,0.92889,0.135561
0,-6.8525,-1.31024,0.981313,0.555181
0,-5.71921,-0.156606,0.902407,0.342531
0,-5.71429,-0.496147,0.718036,0.700544
0,-6.12296,-0.891227,0.519946,0.493026
0,-7.92217,-2.31084,0.744157,0.926633
0,-5.55464,-0.238623,0.817882,0.679149
0,-7.32948,-1.45333,0.84548,0.101432
0,-5.30296,-0.0219624,0.835765,0.528008
0,-6.97063,-1.14466,0.965643,0.769632
0,-5.54568,-0.307631,0.770751,0.674128
0,-9.35228,-3.17288,0.980855,0.0757071
0,-5.3997,-0.00517431,0.877622,0.476792
0,-5.31692,-0.0594262,0.822109,0.565125
0,-5.61106,-0.132934,0.871677,0.333215
0,-6.02453,-0.595681,0.809851,0.779352
0,-5.52806,-0.0877066,0.888456,0.604341
0,-7.05817,-1.51116,0.391506,0.431593
0,-6.50952,-1.02924,0.675164,0.181462
0,-5.33443,-0.191674,0.736185,0.476985
0,-6.72689,-1.03478,0.972268,0.673509
0,-6.26268,-0.554142,0.942673,0.711664
0,-5.821,-0.661161,0.580479,0.477199
0,-5.47591,-0.0561682,0.884945,0.580145
0,-6.77,-1.32663,0.425111,0.447455
0,-7.27547,-1.24258,0.918744,0.124972
0,-6.40233,-0.657424,0.945369,0.734717
0,-5.63814,-0.513275,0.623754,0.497632
0,-5.72236,-0.174406,0.921564,0.597522
0,-5.6059,-0.228479,0.813338,0.305426
0,-5.47661,-0.298885,0.740912,0.636092
0,-5.91768,-0.305355,0.935349,0.629557
0,-5.71363,-0.148651,0.907231,0.355686
0,-6.90539,-1.40177,0.426916,0.356708
0,-6.76387,-0.944407,0.967448,0.279167
0,-6.27045,-0.627911,0.964821,0.530211
0,-5.35249,-0.00971957,0.861229,0.530362
0,-5.39039,-0.208243,0.743357,0.406354
0,-6.82247,-0.904383,0.910214,0.157848
0,-5.66684,-0.386999,0.775831,0.708886
0,-6.28683,-0.615453,0.960206,0.624382
0,-5.94475,-0.331743,0.923608,0.681447
0,-6.35726,-0.788298,0.785487,0.177083
0,-6.73469,-0.945661,0.910159,0.833362
0,-19.0573,-9.86258,0.0367313,0.0583325
0,-5.36953,-0.122792,0.790392,0.393132
0,-5.29631,-0.134605,0.76276,0.514963
0,-5.48247,-0.30659,0.711609,0.386644
0,-5.86056,-0.695922,0.592677,0.609011
0,-8.7254,-2.56734,0.245597,0.582147
0,-10.233,-3.93323,0.353809,0.0636451
0,-5.41838,-0.00941758,0.881893,0.470687
0,-7.04864,-1.04432,0.947511,0.173331
0,-6.45434,-0.614303,0.931617,0.22575
0,-8.20622,-2.32983,0.981259,0.853078
0,-6.48287,-0.702032,0.883567,0.178762
0,-5.82193,-0.27252,0.902924,0.68907
0,-6.79068,-1.35049,0.4201,0.522733
0,-5.93731,-0.756078,0.579159,0.617948
0,-5.792,-0.254096,0.867534,0.280176
0,-5.50058,-0.0363831,0.899922,0.476569
0,-8.15222,-2.01957,0.911553,0.0741891
0,-6.17262,-0.465463,0.952107,0.359324
0,-5.72659,-0.211057,0.86814,0.296455
0,-6.70189,-1.25278,0.489353,0.287472
0,-7.90213,-1.73465,0.935599,0.0957549
0,-5.84225,-0.636223,0.668253,0.701363
0,-6.12961,-0.575641,0.815366,0.205631
0,-7.41114,-1.60992,0.799529,0.0949082
0,-5.51611,-0.369769,0.703782,0.621493
0,-7.15118,-1.22963,0.946809,0.838491
0,-7.28939,-1.2242,0.943492,0.144304
0,-5.70399,-0.479187,0.726396,0.70208
0,-8.98152,-3.14781,0.988698,0.123025
0,-8.49267,-2.84502,0.78128,0.947044
0,-6.55747,-1.08973,0.756684,0.84147
0,-5.71365,-0.574341,0.605344,0.479148
0,-7.11932,-1.20487,0.942533,0.841197
0,-5.38747,-0.026729,0.866596,0.558724
0,-6.33631,-0.885695,0.777689,0.820048
0,-5.95186,-0.34023,0.920425,0.691299
0,-5.42273,-0.227913,0.742464,0.388282
0,-7.1606,-1.76301,0.986902,0.500221
0,-6.40809,-0.975019,0.651761,0.203271
0,-6.30064,-0.974191,0.667499,0.78855
0,-7.84945,-1.81853,0.958779,0.879726
0,-5.30563,-0.147073,0.755273,0.481534
0,-6.92339,-1.21276,0.792691,0.125393
0,-7.61365,-1.83465,0.855449,0.912483
0,-5.55244,-0.215678,0.829939,0.675403
0,-5.3455,-0.037581,0.845323,0.565249
0,-5.78409,-0.308899,0.833395,0.266846
0,-8.41308,-3.05155,0.992157,0.218738
0,-5.382,-0.257236,0.716095,0.542532
0,-6.18164,-0.583557,0.878026,0.784852
0,-5.34444,-0.173773,0.74961,0.43479
0,-6.05669,-0.679767,0.705877,0.233721
0,-6.58047,-0.911354,0.970801,0.636842
0,-5.41999,-0.0658131,0.842621,0.382632
0,-5.53032,-0.153468,0.829817,0.331648
0,-7.52689,-1.97124,0.701129,0.904547
0,-5.61011,-0.22971,0.81419,0.304387
0,-8.91196,-2.68091,0.286775,0.212157
0,-5.9939,-0.795444,0.544157,0.48572
0,-9.88912,-3.63206,0.975915,0.0507616
0,-7.3568,-1.47301,0.847206,0.100056
0,-5.29744,-0.137589,0.760833,0.510575
0,-5.79682,-0.641497,0.586075,0.475181
0,-5.44226,-0.135497,0.830757,0.635082
0,-5.39472,-0.200994,0.769778,0.614019
0,-7.44938,-1.85113,0.448996,0.798017
0,-6.29642,-0.619686,0.959672,0.633742
0,-7.68249,-1.96381,0.691039,0.0887512
0,-7.24354,-1.35913,0.974321,0.227511
0,-8.3467,-2.10456,0.955694,0.0878187
0,-7.04601,-1.51649,0.98323,0.6195
0,-5.83349,-0.243718,0.936161,0.575099
0,-7.55977,-2.01973,0.636537,0.895675
0,-6.60591,-1.18478,0.506735,0.285319
0,-5.8937,-0.28747,0.943292,0.547007
0,-6.64491,-1.0502,0.976947,0.533643
0,-6.74951,-0.975043,0.970611,0.304871
0,-6.11153,-0.456787,0.950637,0.624444
0,-5.84157,-0.237798,0.898213,0.29843
0,-5.30311,-0.0645084,0.803915,0.440769
0,-10.2744,-3.50709,0.19009,0.236634
0,-5.98246,-0.353886,0.950445,0.484576
0,-6.22695,-0.464769,0.937836,0.28247
0,-6.36636,-0.920878,0.769499,0.822773
0,-10.5701,-4.58503,0.444684,0.0356558
0,-5.58928,-0.231923,0.835486,0.684567
0,-5.6042,-0.11771,0.902277,0.607504
0,-6.46278,-0.798093,0.970279,0.418676
0,-5.63744,-0.454591,0.705654,0.670531
0,-6.347,-0.59868,0.886295,0.196723
0,-5.91874,-0.310736,0.88295,0.264211
0,-7.93866,-1.89433,0.948857,0.896539
0,-7.87313,-1.70405,0.958206,0.117857
0,-7.3802,-1.83569,0.514897,0.838787
0,-7.34139,-1.68336,0.981943,0.731322
0,-6.72101,-0.9001,0.951037,0.776643
0,-7.35515,-1.71126,0.61279,0.123445
0,-5.30628,-0.0456333,0.825086,0.551291
0,-5.34841,-0.211535,0.728063,0.477205
0,-6.08821,-0.421183,0.953035,0.410686
0,-5.53463,-0.0826033,0.874359,0.365315
0,-5.55971,-0.247896,0.783645,0.318952
0,-9.45019,-2.98572,0.210169,0.344922
0,-7.765,-2.75899,0.992835,0.555832
0,-5.31761,-0.00422447,0.848679,0.493156
0,-5.33735,-0.0165661,0.852411,0.539771
0,-5.39624,-0.0855419,0.839904,0.607024
0,-6.51492,-0.729745,0.881435,0.174211
0,-8.01929,-1.86909,0.921981,0.0833459
0,-5.96207,-0.337294,0.939152,0.629552
0,-5.67947,-0.54161,0.638704,0.608006
0,-5.74529,-0.225128,0.898577,0.673461
0,-6.87931,-1.27024,0.980247,0.388263
0,-5.76892,-0.620135,0.592005,0.481082
0,-10.2338,-4.33137,0.985726,0.94538
0,-8.08237,-2.09926,0.918341,0.920793
0,-5.83124,-0.368962,0.855377,0.735194
0,-5.95545,-0.295077,0.911629,0.290389
0,-5.70824,-0.18565,0.906405,0.644248
0,-5.66939,-0.15718,0.906807,0.626556
0,-6.23495,-0.859038,0.737912,0.801985
0,-5.34563,-0.0394749,0.844407,0.566824
0,-6.82064,-1.27495,0.980951,0.535961
0,-8.13456,-2.45985,0.501643,0.891928
0,-7.2251,-1.19656,0.921791,0.130612
0,-7.50429,-1.4613,0.905425,0.103873
0,-6.24568,-0.474763,0.934696,0.270267
0,-6.58198,-0.840289,0.902755,0.821803
0,-7.24605,-1.24171,0.90771,0.121419
0,-5.78944,-0.214178,0.930964,0.584232
0,-5.63579,-0.10069,0.917504,0.445622
0,-6.88527,-1.15029,0.972409,0.715382
0,-5.86605,-0.369257,0.868237,0.735478
0,-5.29075,-0.0588574,0.810704,0.542216
0,-5.76464,-0.186796,0.934007,0.490208
0,-6.93565,-1.40694,0.982411,0.579807
0,-5.37587,-0.0177047,0.857491,0.429685
0,-7.23197,-1.29504,0.948748,0.843571
0,-5.33948,-0.112401,0.786389,0.412593
0,-6.50566,-0.686035,0.954827,0.275364
0,-6.45432,-0.719668,0.91416,0.796611
0,-5.28289,-0.0898667,0.783192,0.477517
0,-8.30517,-2.64853,0.782943,0.941524
0,-5.31361,-0.0969062,0.798779,0.569468
0,-5.9841,-0.456164,0.868079,0.758156
0,-6.29706,-0.646896,0.842222,0.187449
0,-5.94324,-0.642176,0.735755,0.756778
0,-6.82008,-1.36747,0.415863,0.505809
0,-6.21943,-0.560555,0.961997,0.447977
0,-6.00607,-0.464852,0.871871,0.759964
0,-6.32677,-0.874946,0.779938,0.819105
0,-5.57892,-0.0807159,0.911762,0.533698
0,-5.94098,-0.587855,0.775404,0.764651
0,-6.59512,-0.914752,0.972689,0.383667
0,-7.7147,-2.21236,0.987621,0.735275
0,-8.42112,-2.3514,0.886612,0.0596101
0,-5.69767,-0.456857,0.741044,0.706794
0,-5.80182,-0.20853,0.9364,0.462576
0,-6.46012,-0.656466,0.899132,0.190252
0,-7.35247,-1.9255,0.987736,0.374821
0,-5.28799,-0.0289925,0.821944,0.474009
0,-5.44648,-0.333082,0.686113,0.532213
0,-5.44996,-0.129816,0.83689,0.635171
0,-6.46144,-0.894871,0.765323,0.167304
0,-5.40399,-0.0778323,0.829754,0.382114
0,-5.59645,-0.474517,0.63559,0.485965
0,-6.02805,-0.785537,0.648083,0.730141
0,-6.76849,-1.3463,0.435113,0.608343
0,-5.33705,-0.189444,0.737904,0.465308
0,-6.02516,-0.389031,0.947489,0.604933
0,-6.39876,-0.780465,0.809217,0.172285
0,-7.21455,-1.49408,0.98077,0.284029
0,-5.3137,-0.011081,0.841223,0.466015
0,-5.57603,-0.455637,0.654047,0.573499
0,-5.83349,-0.492315,0.786216,0.746328
0,-6.69562,-0.835973,0.89576,0.161956
0,-8.75852,-2.65159,0.8983,0.0513453
0,-6.409,-0.601077,0.911056,0.206621
0,-8.0038,-2.5251,0.989064,0.767022
0,-6.8688,-0.918842,0.950346,0.200367
0,-6.71023,-1.32205,0.578699,0.799032
0,-6.20753,-0.498113,0.88763,0.217029
0,-5.42305,-0.281523,0.706155,0.435015
0,-5.61665,-0.343498,0.743582,0.313966
0,-6.70549,-1.05584,0.782554,0.14296
0,-7.5169,-1.53563,0.956922,0.856791
0,-7.19099,-1.5854,0.508927,0.185708
0,-5.49519,-0.107865,0.865635,0.629212
0,-5.71035,-0.576271,0.615647,0.571428
0,-6.05341,-0.846988,0.539182,0.566102
0,-6.08176,-0.671204,0.727726,0.222424
0,-5.65451,-0.112207,0.909592,0.389869
0,-7.62098,-2.21365,0.988632,0.693836
0,-5.85178,-0.355658,0.869884,0.731447
0,-5.9464,-0.723743,0.585224,0.365274
0,-5.43457,-0.265232,0.721563,0.402168
0,-6.68662,-1.03252,0.974069,0.637224
0,-5.70033,-0.56819,0.616884,0.566808
0,-8.1097,-2.3288,0.986142,0.18607
0,-5.57433,-0.372259,0.738065,0.670485
0,-5.77704,-0.196611,0.935201,0.498817
0,-6.5709,-0.961968,0.975178,0.514755
0,-9.07097,-3.30754,0.98787,0.887613
0,-10.4631,-3.65059,0.197304,0.188958
0,-6.18928,-0.944071,0.550453,0.664501
0,-5.73452,-0.374587,0.814069,0.725919
0,-5.56718,-0.237913,0.792826,0.315777
0,-6.00258,-0.436454,0.844014,0.229318
0,-5.65914,-0.115632,0.922069,0.46455
0,-8.3924,-2.71962,0.987477,0.834746
0,-5.59713,-0.374043,0.712243,0.338087
0,-5.83755,-0.289197,0.899703,0.698382
0,-7.77917,-2.14857,0.767485,0.921885
0,-6.9161,-1.24322,0.976696,0.683717
0,-5.98572,-0.353935,0.936233,0.653154
0,-5.62187,-0.0991826,0.901855,0.381923
0,-6.49419,-0.813194,0.970131,0.395481
0,-8.80363,-2.65119,0.263851,0.711731
0,-6.8263,-0.986529,0.871474,0.140795
0,-5.95781,-0.336826,0.882789,0.256241
0,-5.50967,-0.305218,0.724125,0.362152
0,-5.58994,-0.091164,0.911174,0.554821
0,-7.27409,-1.44176,0.972771,0.78527
0,-7.9015,-1.7425,0.931323,0.0933623
0,-5.50532,-0.25746,0.785001,0.663893
0,-5.95537,-0.336044,0.946208,0.569467
0,-7.62224,-1.88509,0.836626,0.914489
0,-5.34669,-0.04472,0.830199,0.416467
0,-8.14291,-1.93491,0.941869,0.0873581
0,-7.10494,-1.22038,0.92281,0.859013
0,-6.65634,-0.786678,0.906504,0.17245
0,-5.99863,-0.567821,0.762449,0.227674
0,-5.48913,-0.239522,0.7891,0.658823
0,-5.46918,-0.0697623,0.857821,0.373417
0,-6.87992,-1.09108,0.972751,0.288548
0,-7.00084,-1.51031,0.429526,0.682714
0,-12.6327,-5.00856,0.101588,0.244428
0,-6.16196,-0.520592,0.96004,0.52822
0,-5.8993,-0.728274,0.579898,0.598908
0,-6.52573,-0.748402,0.933571,0.782127
0,-6.45321,-1.0583,0.566888,0.250352
0,-5.56653,-0.0810996,0.907003,0.559283
0,-6.77693,-1.2201,0.980243,0.506085
0,-6.78138,-0.84464,0.940508,0.19362
0,-5.87501,-0.29041,0.916235,0.678525
0,-5.42579,-0.0111119,0.884095,0.473907
0,-6.20105,-0.948446,0.506289,0.502853
0,-7.49053,-2.27441,0.990594,0.45866
0,-7.52366,-1.84257,0.542135,0.135119
0,-7.56075,-1.64303,0.97755,0.198896
0,-7.13351,-1.6306,0.485675,0.78813
0,-7.40935,-1.74016,0.81027,0.904907
0,-6.2387,-0.472392,0.937865,0.279837
0,-7.79312,-2.01794,0.981843,0.806002
0,-5.6598,-0.217253,0.839878,0.297736
0,-8.08566,-1.88543,0.941159,0.0897176
0,-6.13232,-0.409215,0.91302,0.254124
0,-6.52598,-1.00167,0.800058,0.840994
0,-6.87168,-1.39407,0.411398,0.454946
0,-7.60992,-2.34811,0.990325,0.638727
0,-6.3562,-1.0601,0.482036,0.529159
0,-5.70187,-0.16419,0.91789,0.603087
0,-5.81136,-0.254405,0.909549,0.673502
0,-5.76511,-0.399615,0.770421,0.269521
0,-6.28238,-0.536887,0.895353,0.21139
0,-6.48296,-1.07564,0.572194,0.240411
0,-7.66515,-1.96653,0.63667,0.0982842
0,-7.53521,-2.31153,0.990714,0.42458
0,-5.38379,-0.128222,0.792093,0.385245
0,-7.00459,-1.29424,0.782401,0.119879
0,-8.54807,-2.5718,0.913862,0.93953
0,-5.63358,-0.511934,0.627023,0.530915
0,-6.50089,-0.864916,0.971741,0.576446
0,-7.75127,-2.1382,0.511093,0.86938
0,-7.59836,-1.91181,0.604347,0.10943
0,-5.40456,-0.0153156,0.869971,0.434339
0,-6.05919,-0.424552,0.95368,0.555399
0,-6.45867,-0.739628,0.855496,0.171791
0,-9.16436,-2.89826,0.945653,0.0517627
0,-7.3421,-1.94927,0.987692,0.62186
0,-8.49373,-2.61053,0.982791,0.870229
0,-5.81097,-0.209569,0.935083,0.433911
0,-8.16367,-1.97333,0.932241,0.0811927
0,-6.22,-0.964917,0.504227,0.529252
0,-8.77525,-2.646,0.339115,0.157888
0,-5.9834,-0.358348,0.950568,0.510464
0,-6.95207,-1.09241,0.969539,0.252065
0,-6.25032,-0.702546,0.790628,0.189496
0,-7.08198,-1.28518,0.971731,0.759682
0,-5.44819,-0.102034,0.851061,0.62369
0,-6.26439,-0.612115,0.962637,0.580416
0,-6.85212,-1.10286,0.970534,0.721151
0,-5.54182,-0.284389,0.784434,0.675691
0,-6.18853,-0.732837,0.738071,0.204219
0,-5.66582,-0.120032,0.90763,0.377595
0,-6.01852,-0.818724,0.564395,0.623978
0,-5.54258,-0.0543438,0.906559,0.470093
0,-6.83266,-1.16325,0.848238,0.864505
0,-5.83452,-0.551881,0.688783,0.286318
0,-5.83394,-0.249306,0.927315,0.629052
0,-5.84746,-0.240113,0.939769,0.454248
0,-6.0749,-0.43725,0.955931,0.498138
0,-5.43663,-0.0439734,0.862255,0.395761
0,-5.77815,-0.198353,0.935274,0.506162
0,-6.50953,-0.872246,0.971812,0.581394
0,-8.93865,-3.33768,0.600097,0.946877
0,-8.1409,-2.18645,0.908472,0.926188
0,-5.34993,-0.00379063,0.858401,0.461574
0,-5.83639,-0.34842,0.830549,0.255621
0,-5.33682,-0.068975,0.825171,0.579819
0,-5.61578,-0.199966,0.862542,0.676841
0,-6.23778,-0.535192,0.940694,0.711815
0,-6.01983,-0.816903,0.538863,0.500766
0,-6.64519,-0.756355,0.947186,0.225941
0,-7.54171,-1.89214,0.983706,0.752064
0,-7.61467,-1.66571,0.976781,0.188149
0,-5.60695,-0.487705,0.637817,0.549796
0,-6.76794,-1.2642,0.754549,0.86024
0,-6.27639,-0.564296,0.958695,0.366335
0,-11.3101,-5.5948,0.988246,0.965775
0,-6.86545,-1.13955,0.972667,0.708577
0,-5.77709,-0.629496,0.606774,0.594487
0,-5.79062,-0.598068,0.669636,0.68844
0,-5.4147,-0.205383,0.75438,0.383975
0,-5.43762,-0.133998,0.807902,0.360522
0,-8.86685,-2.66206,0.24078,0.622268
0,-7.5404,-1.57532,0.963612,0.846238
0,-6.75118,-0.921717,0.950377,0.782899
0,-6.02068,-0.356606,0.896523,0.256241
0,-6.62426,-0.923422,0.879948,0.837906
0,-6.47809,-0.928519,0.749399,0.167492
0,-5.83812,-0.563168,0.680771,0.290633
0,-6.50503,-0.792517,0.96825,0.364092
0,-7.17774,-1.31274,0.967255,0.794618
0,-6.12677,-0.461913,0.947407,0.651614
0,-5.64506,-0.121306,0.894081,0.353485
0,-6.1676,-0.540465,0.894221,0.771939
0,-6.72797,-0.893187,0.964621,0.271254
0,-7.36845,-1.65122,0.837202,0.901481
0,-5.29469,-0.117994,0.769326,0.471751
0,-6.58384,-1.05802,0.704292,0.165109
0,-8.41315,-2.5814,0.410656,0.867327
0,-6.66375,-1.15877,0.653435,0.171565
0,-5.48863,-0.0531182,0.876165,0.390428
0,-5.56268,-0.0703808,0.910137,0.522312
0,-6.09226,-0.617312,0.772979,0.211901
0,-6.55533,-0.698179,0.948558,0.244691
0,-6.33621,-0.834879,0.809713,0.820711
0,-6.06266,-0.413073,0.945052,0.639732
0,-8.05731,-1.86598,0.93796,0.089174
0,-5.41087,-0.102328,0.836565,0.617259
0,-6.68235,-1.28247,0.436335,0.548727
0,-6.66661,-1.04937,0.975923,0.592748
0,-5.41337,-0.00817891,0.880805,0.472388
0,-6.1837,-0.510623,0.871673,0.211665
0,-5.74269,-0.541406,0.646041,0.35178
0,-5.3844,-0.235254,0.738303,0.584277
0,-6.99849,-1.0088,0.948482,0.180624
0,-5.62229,-0.243881,0.810336,0.300718
0,-5.28618,-0.0241284,0.825341,0.489795
0,-7.81101,-1.84809,0.917611,0.908297
0,-7.10779,-1.39738,0.769381,0.113548
0,-6.69342,-0.850139,0.887852,0.158447
0,-6.2743,-0.985406,0.502991,0.418517
0,-6.4197,-0.619438,0.903939,0.198965
0,-5.59031,-0.0799511,0.914555,0.491611
0,-6.59273,-0.927605,0.973428,0.39829
0,-6.67316,-1.13083,0.698294,0.157599
0,-5.81243,-0.212606,0.936108,0.444073
0,-7.88459,-1.84057,0.888006,0.0799146
0,-5.85388,-0.258002,0.93883,0.565583
0,-6.27881,-0.500682,0.920202,0.237428
0,-6.09883,-0.516459,0.836592,0.212756
0,-5.52357,-0.120573,0.869606,0.63651
0,-6.23481,-0.585847,0.961871,0.570298
0,-7.76206,-2.1604,0.740967,0.91973
0,-6.29004,-0.620245,0.964118,0.426441
0,-6.44092,-0.604972,0.933008,0.23028
0,-5.62557,-0.191427,0.842285,0.307886
0,-6.45925,-1.03818,0.733888,0.827979
0,-8.34893,-2.42196,0.831509,0.0575115
0,-6.88192,-1.22265,0.839493,0.869518
0,-8.77254,-2.86774,0.491818,0.0783193
0,-5.99474,-0.460528,0.869837,0.759097
0,-5.97876,-0.610091,0.779385,0.771362
0,-8.26332,-2.66827,0.615893,0.926265
0,-7.11318,-1.30464,0.889689,0.876106
0,-9.45363,-3.23004,0.357448,0.0955933
0,-6.62736,-1.26204,0.548839,0.764921
0,-5.69547,-0.531888,0.66749,0.656016
0,-5.35084,-0.193878,0.751381,0.572962
0,-5.696,-0.510154,0.649081,0.366717
0,-5.99596,-0.801356,0.544047,0.519766
0,-7.41141,-1.73969,0.671621,0.106431
0,-7.87313,-2.27687,0.986728,0.775716
0,-5.57742,-0.317104,0.744969,0.325171
0,-5.54359,-0.394586,0.671909,0.409912
0,-7.98593,-2.05233,0.903837,0.920939
0,-6.2654,-0.701498,0.798082,0.187487
0,-6.53641,-0.87784,0.97249,0.414731
0,-6.24228,-0.542504,0.92806,0.743048
0,-9.57249,-3.76402,0.990349,0.0957685
0,-5.96612,-0.342209,0.943556,0.602947
0,-6.23336,-0.913401,0.569204,0.295891
0,-5.62475,-0.106232,0.917493,0.540012
0,-8.05778,-2.16916,0.979575,0.846766
0,-7.93306,-2.26014,0.475526,0.866537
0,-5.85258,-0.276252,0.914834,0.674822
0,-5.91573,-0.276661,0.939886,0.398811
0,-6.46916,-0.976649,0.700712,0.178432
0,-7.15212,-1.61528,0.421972,0.708025
0,-5.48414,-0.351186,0.680313,0.438662
0,-5.51653,-0.156369,0.823105,0.334171
0,-5.45407,-0.235527,0.749649,0.368218
0,-5.86678,-0.526713,0.779669,0.751985
0,-5.33762,-0.1761,0.746032,0.447071
0,-6.69052,-1.10558,0.97826,0.486796
0,-6.59904,-0.71444,0.934319,0.20835
0,-5.64808,-0.278337,0.833144,0.701557
0,-5.52347,-0.0870388,0.867162,0.360473
0,-6.42366,-1.11527,0.506123,0.661964
0,-6.25961,-0.990704,0.56646,0.707456
0,-5.31826,-0.125382,0.771366,0.437328
0,-6.64889,-1.05359,0.977244,0.487257
0,-5.7757,-0.269476,0.886109,0.699533
0,-5.82534,-0.598854,0.639262,0.330753
0,-7.34727,-1.83771,0.985665,0.678264
0,-5.80519,-0.2565,0.871117,0.27966
0,-5.75522,-0.575143,0.621684,0.384687
0,-7.01657,-1.3478,0.749447,0.121215
0,-6.57591,-0.723494,0.952571,0.252826
0,-6.31908,-0.558851,0.952958,0.314245
0,-5.85127,-0.23338,0.907145,0.309931
0,-6.49334,-0.977687,0.717093,0.17173
0,-6.97371,-1.12754,0.915463,0.852752
0,-5.40606,-0.213466,0.766787,0.618434
0,-6.06665,-0.839093,0.602701,0.699196
0,-7.18993,-1.65742,0.451272,0.760687
0,-5.57139,-0.190686,0.822888,0.316868
0,-5.49438,-0.21512,0.778893,0.341023
0,-6.70097,-1.31304,0.591745,0.805392
0,-6.45411,-0.852581,0.790236,0.166409
0,-6.21168,-0.719077,0.820619,0.804912
0,-5.29446,-0.0169218,0.832079,0.483071
0,-9.60791,-3.72461,0.913589,0.965392
0,-5.91642,-0.627887,0.667367,0.281126
0,-5.44005,-0.272166,0.71889,0.402048
0,-6.65214,-0.759818,0.922721,0.186666
0,-5.76742,-0.183543,0.904876,0.331066
0,-7.75943,-1.86138,0.975864,0.832234
0,-5.77328,-0.246372,0.864991,0.282826
0,-7.85922,-2.10194,0.378805,0.776117
0,-5.66616,-0.285188,0.802298,0.289186
0,-6.47439,-0.740249,0.861087,0.17154
0,-5.6039,-0.0838137,0.91013,0.425215
0,-6.22206,-0.458317,0.928897,0.26262
0,-7.0258,-1.05721,0.912113,0.140649
0,-5.32491,-0.172861,0.752013,0.547242
0,-6.88795,-1.36632,0.982466,0.488994
0,-6.4092,-0.802556,0.80061,0.171008
0,-6.8092,-1.03055,0.843685,0.136741
0,-5.92028,-0.416301,0.864477,0.748338
0,-5.89159,-0.329907,0.89865,0.713449
0,-6.06419,-0.395413,0.950571,0.400021
0,-5.55915,-0.065987,0.899064,0.408784
0,-5.45371,-0.0651475,0.872174,0.597151
0,-7.1036,-1.23352,0.859851,0.117369
0,-6.49906,-0.833578,0.971196,0.412428
0,-7.72376,-2.1191,0.516747,0.869753
0,-6.55036,-1.10721,0.601701,0.209274
0,-5.85084,-0.439481,0.825398,0.748128
0,-6.66504,-0.774007,0.918758,0.18124
0,-5.8829,-0.663113,0.609508,0.349649
0,-6.13491,-0.886624,0.606265,0.719573
0,-6.80247,-1.3308,0.447531,0.33846
0,-5.49163,-0.0509821,0.878943,0.394319
0,-5.37269,-0.0559745,0.832141,0.400713
0,-5.35739,-0.171402,0.755481,0.417846
0,-5.70339,-0.176069,0.910342,0.631481
0,-6.48557,-0.774317,0.963107,0.675474
0,-6.80411,-0.954977,0.878201,0.144664
0,-5.2822,-0.0731355,0.79288,0.470836
0,-8.78656,-2.98477,0.864864,0.952823
0,-8.5915,-2.49802,0.950856,0.926632
0,-7.61301,-1.5208,0.919256,0.103214
0,-6.02008,-0.387918,0.952829,0.494529
0,-5.35758,-0.10566,0.813054,0.599144
0,-5.84212,-0.670696,0.618149,0.647736
0,-6.01643,-0.666672,0.759311,0.774637
0,-5.87251,-0.298873,0.87202,0.265615
0,-5.71209,-0.235494,0.848599,0.288327
0,-6.87777,-1.34941,0.982228,0.4796
0,-5.66046,-0.411899,0.713211,0.317205
0,-6.03528,-0.393127,0.927489,0.69705
0,-7.89156,-2.09086,0.765044,0.0735684
0,-5.9494,-0.508502,0.827464,0.765439
0,-7.09141,-1.38095,0.771517,0.114502
0,-7.60264,-1.47641,0.939459,0.116437
0,-5.43447,-0.0161127,0.882276,0.448338
0,-5.50943,-0.395365,0.661322,0.49678
0,-5.88716,-0.275144,0.943844,0.478283
0,-6.1885,-0.444343,0.915326,0.246717
0,-7.31587,-1.69882,0.783338,0.89965
0,-8.33849,-2.28019,0.939815,0.922651
0,-6.84016,-1.4215,0.539481,0.79049
0,-5.67494,-0.127263,0.924761,0.482719
0,-5.74229,-0.159897,0.917008,0.372654
0,-5.46578,-0.0239017,0.893927,0.488585
0,-6.30639,-0.594473,0.923539,0.76246
0,-5.57945,-0.43867,0.653357,0.425518
0,-7.8113,-1.65382,0.958277,0.122252
0,-5.58716,-0.337902,0.77032,0.686523
0,-7.24505,-1.36664,0.974691,0.229373
0,-7.14134,-1.54784,0.461919,0.234994
0,-5.49662,-0.0892703,0.855814,0.359473
0,-5.95346,-0.332229,0.931316,0.660682
0,-6.74822,-1.07379,0.973895,0.662817
0,-6.42393,-0.691881,0.954965,0.704651
0,-6.05086,-0.379737,0.894548,0.248571
0,-5.29991,-0.11159,0.782517,0.550769
0,-5.54742,-0.103234,0.866011,0.349704
0,-5.89863,-0.289175,0.944848,0.513463
0,-5.89782,-0.292706,0.930881,0.641441
0,-7.61899,-1.92904,0.61505,0.105556
0,-5.36007,-0.00984816,0.864013,0.530816
0,-5.67445,-0.243145,0.861913,0.694347
0,-8.04398,-2.00305,0.965037,0.883547
0,-5.76256,-0.25732,0.887574,0.694312
0,-6.94755,-1.41184,0.518057,0.210832
0,-5.77343,-0.223025,0.878959,0.293723
0,-6.52866,-0.759463,0.871632,0.168969
0,-8.24515,-2.28147,0.36391,0.189204
0,-6.9422,-1.28809,0.977938,0.676596
0,-9.64513,-3.46954,0.930424,0.0365744
0,-5.9213,-0.497397,0.82206,0.761417
0,-5.69833,-0.535958,0.627683,0.404167
0,-6.75834,-1.16478,0.815699,0.861531
0,-5.96334,-0.408062,0.884704,0.743313
0,-5.96478,-0.404595,0.84738,0.236628
0,-5.34844,-0.0205714,0.854831,0.548089
0,-5.63784,-0.514771,0.624195,0.513202
0,-5.79029,-0.50674,0.703076,0.288507
0,-5.34958,-0.137426,0.774287,0.410421
0,-7.6259,-1.95924,0.414477,0.786374
0,-6.59611,-0.904691,0.969227,0.660457
0,-5.85202,-0.352796,0.871436,0.730461
0,-5.97924,-0.369927,0.871951,0.244866
0,-5.59204,-0.077673,0.912117,0.450432
0,-5.44198,-0.321472,0.697262,0.563118
0,-6.21906,-0.458725,0.936733,0.281312
0,-5.74183,-0.198638,0.913752,0.637775
0,-6.74081,-1.31542,0.671208,0.841952
0,-6.44598,-0.795876,0.970654,0.44354
0,-5.68348,-0.12935,0.924287,0.456546
0,-7.40943,-2.05105,0.98887,0.392882
0,-8.03438,-2.21114,0.984836,0.184939
0,-5.39217,-0.00494692,0.873878,0.465017
0,-5.94213,-0.330582,0.880326,0.25743
0,-6.54305,-0.796325,0.959693,0.711588
0,-5.56069,-0.0897144,0.880046,0.362899
0,-8.11016,-1.98041,0.911658,0.0759368
0,-6.68919,-0.849966,0.886367,0.158229
0,-8.4211,-2.65596,0.673506,0.0609647
0,-8.18056,-2.19398,0.918094,0.925004
0,-6.25253,-0.580304,0.957922,0.629896
0,-7.35174,-1.46641,0.907004,0.88606
0,-7.2271,-1.43139,0.978303,0.257528
0,-5.98475,-0.305956,0.927882,0.318289
0,-6.23729,-0.727873,0.767558,0.192871
0,-5.3016,-0.14258,0.757244,0.488614
0,-6.45965,-1.05618,0.71674,0.824489
0,-7.64343,-2.04277,0.747317,0.914759
0,-6.71552,-0.812396,0.917733,0.174595
0,-5.65163,-0.111668,0.907807,0.385219
0,-7.94654,-2.11012,0.425064,0.164312
0,-7.15026,-1.56377,0.389737,0.38197
0,-7.71005,-1.9421,0.43622,0.180922
0,-5.82492,-0.262576,0.910557,0.675633
0,-6.24985,-0.561904,0.953166,0.662841
0,-5.52156,-0.0606557,0.88455,0.389932
0,-9.47582,-3.92051,0.600591,0.959985
0,-7.03339,-1.25377,0.972081,0.748816
0,-6.45273,-1.10686,0.477355,0.405141
0,-5.82634,-0.360083,0.858121,0.732849
0,-5.55433,-0.065605,0.896524,0.403197
0,-5.43926,-0.0589635,0.853684,0.383362
0,-7.04637,-1.07134,0.913137,0.139533
0,-5.56112,-0.308554,0.7776,0.680444
0,-5.45658,-0.0460847,0.882747,0.571829
0,-5.94617,-0.525218,0.767153,0.235608
0,-5.56621,-0.295644,0.754983,0.3245
0,-6.90875,-1.45636,0.462739,0.720497
0,-7.91491,-2.02148,0.891617,0.920686
0,-8.22279,-2.36438,0.79537,0.0609739
0,-5.6426,-0.117697,0.919059,0.547787
0,-6.09571,-0.383075,0.914937,0.264188
0,-5.88802,-0.282761,0.943264,0.539388
0,-6.87331,-1.03526,0.95885,0.778384
0,-6.72257,-1.01678,0.873695,0.849466
0,-5.56072,-0.0641574,0.902653,0.422227
0,-7.42541,-1.80088,0.781186,0.905567
0,-8.06902,-2.10566,0.851496,0.0679453
0,-5.63501,-0.47276,0.685606,0.652583
0,-5.50877,-0.185556,0.802756,0.333841
0,-5.32589,-0.0110858,0.844945,0.456229
0,-5.53949,-0.281841,0.753165,0.333862
0,-10.4219,-3.63847,0.205948,0.174991
0,-7.42641,-1.50546,0.96728,0.82532
0,-5.76039,-0.324905,0.81511,0.268596
0,-6.39027,-0.636835,0.882505,0.189252
0,-8.20703,-2.49453,0.816158,0.938381
0,-5.29153,-0.0387044,0.822189,0.53306
0,-5.74044,-0.602018,0.607074,0.567961
0,-5.93477,-0.280521,0.935628,0.36433
0,-5.32137,-0.00429967,0.848885,0.478373
0,-5.68777,-0.202509,0.858666,0.29991
0,-5.34752,-0.13096,0.777622,0.410252
0,-5.66781,-0.49221,0.65028,0.377797
