# stan_version_major = 2
# stan_version_minor = 30
# stan_version_patch = 0
# model = coinbias_model
# start_datetime = 2023-01-12 09:02:32 UTC
# method = variational
#   variational
#     algorithm = meanfield (Default)
#       meanfield
#     iter = 10000 (Default)
#     grad_samples = 1 (Default)
#     elbo_samples = 100 (Default)
#     eta = 1 (Default)
#     adapt
#       engaged = 1 (Default)
#       iter = 50 (Default)
#     tol_rel_obj = 0.01 (Default)
#     eval_elbo = 100 (Default)
#     output_samples = 1000 (Default)
# id = 1 (Default)
# data
#   file = examples\coinbias\coinbias.data.R
# init = 2 (Default)
# random
#   seed = 2892038987 (Default)
# output
#   file = examples\coinbias\coinbiasvar.csv
#   diagnostic_file =  (Default)
#   refresh = 100 (Default)
#   sig_figs = -1 (Default)
#   profile_file = profile.csv (Default)
# num_threads = 1 (Default)
# stanc_version = stanc3 v2.30.1
# stancflags = 
lp__,log_p__,log_g__,bias
# Stepsize adaptation complete.
# eta = 1
0,0,0,0.409886
0,-4.79688,-0.0506413,0.461006
0,-7.00938,-1.88285,0.711921
0,-6.50362,-1.46197,0.680032
0,-5.09465,-0.30467,0.53646
0,-5.23789,-0.423043,0.559013
0,-7.79,-2.7756,0.1295
0,-5.80744,-0.889599,0.624325
0,-4.75055,-1.29978e-005,0.40908
0,-4.8744,-0.119095,0.488691
0,-5.95896,-0.99441,0.216398
0,-8.68575,-3.74315,0.103965
0,-5.02698,-0.248309,0.524097
0,-5.68025,-0.747861,0.237885
0,-4.78127,-0.0361628,0.453002
0,-4.76478,-0.0201526,0.441979
0,-5.72013,-0.818157,0.615901
0,-4.90243,-0.143176,0.496386
0,-6.18706,-1.20092,0.656822
0,-4.85867,-0.072262,0.351358
0,-5.57774,-0.701682,0.601171
0,-5.15666,-0.356035,0.546728
0,-8.54859,-3.20113,0.78422
0,-5.29815,-0.422255,0.275784
0,-5.15795,-0.357101,0.546933
0,-4.75882,-0.00337949,0.396946
0,-5.09824,-0.307646,0.537078
0,-5.34048,-0.45755,0.270895
0,-6.84079,-1.81857,0.166346
0,-5.17884,-0.323996,0.290921
0,-5.32957,-0.448428,0.272135
0,-4.7893,-0.0436704,0.457317
0,-4.9006,-0.103751,0.340209
0,-5.14955,-0.300168,0.295007
0,-4.88944,-0.132047,0.492918
0,-6.29679,-1.30247,0.194657
0,-5.41518,-0.520328,0.262769
0,-4.84516,-0.093687,0.479679
0,-7.12076,-2.09346,0.154112
0,-4.92602,-0.123153,0.33425
0,-6.71962,-1.70152,0.172082
0,-4.94086,-0.134566,0.330985
0,-5.20023,-0.39201,0.553462
0,-5.1848,-0.328857,0.29011
0,-5.72768,-0.824332,0.616646
0,-5.4496,-0.549457,0.259216
0,-4.84261,-0.0914576,0.478833
0,-5.99154,-1.04039,0.640836
0,-4.91997,-0.118517,0.335624
0,-6.57911,-1.5673,0.179111
0,-4.85428,-0.0690092,0.352649
0,-4.8499,-0.0978309,0.481225
0,-7.60683,-2.38732,0.743583
0,-6.68256,-1.6103,0.691956
0,-4.76051,-0.00429693,0.395305
0,-5.85778,-0.930803,0.628998
0,-6.14595,-1.16371,0.203881
0,-5.37167,-0.532942,0.577078
0,-4.79032,-0.0446133,0.457832
0,-6.26595,-1.27394,0.196486
0,-5.32467,-0.44434,0.272696
0,-4.75105,-8.37241e-005,0.40784
0,-4.78601,-0.0406054,0.455603
0,-5.29585,-0.420344,0.276056
0,-4.86789,-0.113468,0.486785
0,-5.02055,-0.242932,0.522845
0,-4.79153,-0.0240645,0.375681
0,-7.74625,-2.50631,0.750233
0,-4.92708,-0.164194,0.502589
0,-5.25458,-0.436774,0.561399
0,-6.45676,-1.42323,0.676777
0,-5.52812,-0.661085,0.595705
0,-5.74905,-0.808052,0.232209
0,-5.33885,-0.45618,0.27108
0,-6.25088,-1.26003,0.19739
0,-5.04952,-0.219774,0.310443
0,-5.1646,-0.312399,0.292886
0,-6.43324,-1.40379,0.675121
0,-5.96616,-1.00087,0.215891
0,-5.51774,-0.652588,0.594537
0,-4.843,-0.0917955,0.478962
0,-5.28621,-0.462788,0.565811
0,-6.94235,-1.91756,0.161752
0,-5.30223,-0.425653,0.275302
0,-5.14466,-0.296201,0.295707
0,-5.20344,-0.394654,0.553944
0,-4.77355,-0.0287983,0.448316
0,-4.76058,-0.0158383,0.438307
0,-5.109,-0.267387,0.300963
0,-4.76866,-0.00908905,0.388739
0,-4.76042,-0.0156656,0.438151
0,-4.97159,-0.201842,0.512774
0,-4.90069,-0.10382,0.340187
0,-4.84616,-0.0945609,0.480007
0,-5.51371,-0.604062,0.25288
0,-5.18783,-0.331337,0.289699
0,-5.14476,-0.346193,0.544824
0,-4.75528,-0.0100777,0.432518
0,-8.75374,-3.38168,0.791907
0,-5.25442,-0.386029,0.28108
0,-4.7895,-0.0226792,0.376665
0,-4.86252,-0.108812,0.485171
0,-4.95448,-0.187406,0.508992
0,-5.4972,-0.589958,0.254478
0,-4.9161,-0.154847,0.499883
0,-5.5679,-0.650549,0.247786
0,-4.86948,-0.114847,0.487256
0,-5.01795,-0.24075,0.522334
0,-4.85991,-0.0731854,0.350997
0,-6.14089,-1.15909,0.204203
0,-4.75527,-0.0100676,0.432507
0,-4.8358,-0.0854775,0.476513
0,-8.52191,-3.17774,0.783193
0,-4.88612,-0.129196,0.492006
0,-6.35796,-1.34165,0.669718
0,-6.31,-1.31471,0.193883
0,-7.29609,-2.26878,0.147089
0,-5.42805,-0.531204,0.261427
0,-5.60447,-0.682087,0.24447
0,-4.76264,-0.00550136,0.3934
0,-4.78334,-0.0381128,0.454162
0,-5.80638,-0.888731,0.624225
0,-5.06767,-0.234239,0.307446
0,-5.1981,-0.390248,0.55314
0,-4.75235,-0.000429598,0.405257
0,-4.764,-0.00628616,0.392272
0,-4.9972,-0.178427,0.319703
0,-5.05295,-0.222506,0.309869
0,-5.00005,-0.18067,0.319171
0,-6.3161,-1.32037,0.193526
0,-5.02327,-0.245207,0.523377
0,-5.90981,-0.973412,0.633699
0,-4.75366,-0.00818008,0.430262
0,-4.89644,-0.138052,0.494807
0,-4.86936,-0.0802213,0.348325
0,-6.57033,-1.5172,0.684568
0,-5.09837,-0.258831,0.302588
0,-8.38365,-3.05684,0.777767
0,-4.99563,-0.222055,0.517847
0,-4.86533,-0.111252,0.486021
0,-5.62177,-0.737702,0.60587
0,-5.17488,-0.371088,0.549588
0,-4.8256,-0.048052,0.361885
0,-5.05573,-0.224723,0.309405
0,-5.88056,-0.949456,0.631072
0,-6.1975,-1.21092,0.200648
0,-5.3086,-0.430952,0.274556
0,-5.7661,-0.823039,0.230844
0,-5.49133,-0.584955,0.255052
0,-5.77805,-0.833557,0.229896
0,-5.97635,-1.02794,0.639531
0,-4.76044,-0.0156956,0.438178
0,-4.7527,-0.00700706,0.428735
0,-4.82447,-0.0754622,0.472439
0,-4.78347,-0.0186282,0.379734
0,-4.81353,-0.0657083,0.468207
0,-4.76905,-0.00932913,0.388464
0,-5.06896,-0.235274,0.307235
0,-4.74982,-4.24075e-005,0.411344
0,-4.75711,-0.0121189,0.434721
0,-6.07789,-1.11123,0.648073
0,-4.75084,-0.00452836,0.425021
0,-4.82596,-0.0483099,0.36176
0,-4.86619,-0.112,0.48628
0,-4.75164,-0.00564771,0.426798
0,-5.20749,-0.347424,0.287078
0,-5.0937,-0.303878,0.536295
0,-4.74979,-0.00285424,0.421889
0,-4.74937,-0.00197434,0.419862
0,-5.16111,-0.359709,0.547432
0,-4.8123,-0.064603,0.467709
0,-5.12289,-0.278586,0.298881
0,-4.77197,-0.0111555,0.386481
0,-5.98865,-1.03802,0.640588
0,-4.80869,-0.0613533,0.466218
0,-4.75157,-0.000199038,0.406733
0,-5.10929,-0.267618,0.30092
0,-4.96699,-0.154821,0.325552
0,-4.92026,-0.118734,0.335559
0,-4.78998,-0.0230094,0.376428
0,-4.75035,-1.40661e-006,0.409621
0,-4.78365,-0.0187442,0.379642
0,-4.87276,-0.0827563,0.347393
0,-5.69014,-0.756483,0.237052
0,-4.75516,-0.00993275,0.432353
0,-5.56376,-0.64699,0.248167
0,-4.85011,-0.0980192,0.481294
0,-4.75447,-0.00914267,0.431435
0,-4.75029,-1.94136e-007,0.409787
0,-6.01269,-1.05774,0.642636
0,-4.98588,-0.213862,0.51582
0,-6.23225,-1.23809,0.660322
0,-4.78062,-0.0167368,0.381285
0,-4.78043,-0.0166168,0.381387
0,-5.29551,-0.470432,0.567082
0,-4.78566,-0.0200906,0.37859
0,-7.645,-2.41985,0.745428
0,-4.76182,-0.0171272,0.439451
0,-5.39014,-0.499212,0.265427
0,-4.75687,-0.0023736,0.399032
0,-4.82958,-0.0799885,0.474311
0,-8.78667,-3.41078,0.793107
0,-5.40288,-0.509946,0.264067
0,-4.89285,-0.134972,0.493843
0,-4.99366,-0.175655,0.320366
0,-5.01185,-0.235645,0.521126
0,-5.25984,-0.390509,0.280409
0,-4.90715,-0.147216,0.497612
0,-5.11522,-0.272399,0.300025
0,-6.59681,-1.58411,0.178202
0,-5.21246,-0.402089,0.55529
0,-4.93894,-0.133086,0.331399
0,-4.75713,-0.00250341,0.398741
0,-4.94704,-0.139342,0.329665
0,-4.75036,-1.75272e-006,0.40959
0,-4.85817,-0.0718909,0.351504
0,-5.01089,-0.189193,0.317183
0,-5.02005,-0.242512,0.522747
0,-4.94676,-0.180879,0.507234
0,-4.78857,-0.0429866,0.45694
0,-7.10701,-2.07982,0.154682
0,-4.7618,-0.0171128,0.439439
0,-4.77266,-0.0115911,0.386033
0,-4.7865,-0.0206566,0.378158
0,-4.78235,-0.0371812,0.453612
0,-4.74975,-6.04036e-005,0.411626
0,-4.80515,-0.0581572,0.464713
0,-4.74913,-0.00108458,0.417273
0,-5.05814,-0.226635,0.309007
0,-4.9183,-0.117236,0.336009
0,-4.83161,-0.0817757,0.475036
0,-4.84912,-0.0971505,0.480973
0,-5.05682,-0.225585,0.309226
0,-5.83412,-0.883092,0.225547
0,-5.75958,-0.817303,0.231364
0,-4.84557,-0.0625887,0.355297
0,-4.74988,-3.14499e-005,0.411141
0,-4.90941,-0.110451,0.338087
0,-5.11415,-0.320841,0.539784
0,-4.76692,-0.022299,0.443661
0,-4.75954,-0.0147432,0.437299
0,-4.92145,-0.119649,0.335285
0,-4.91854,-0.15693,0.500492
0,-4.9122,-0.15152,0.4989
0,-4.99844,-0.179403,0.319471
0,-5.77502,-0.863067,0.621246
0,-5.30059,-0.474602,0.567771
0,-8.65203,-3.7056,0.104806
0,-4.76438,-0.00651319,0.391959
0,-4.95372,-0.144513,0.328263
0,-4.79616,-0.049981,0.460668
0,-4.79543,-0.0267377,0.373863
0,-4.85536,-0.102589,0.48296
0,-5.56392,-0.690378,0.599668
0,-7.58382,-2.36774,0.742461
0,-4.78104,-0.0170132,0.381053
0,-4.98572,-0.213729,0.515787
0,-4.82608,-0.0483938,0.361719
0,-5.20744,-0.34738,0.287085
0,-6.17297,-1.18842,0.202175
0,-5.09546,-0.256495,0.303038
0,-4.89543,-0.0998258,0.341487
0,-7.47131,-2.4464,0.140502
0,-5.35299,-0.517621,0.574691
0,-5.11673,-0.322979,0.540217
0,-4.79917,-0.0293214,0.372193
0,-4.91729,-0.116463,0.336242
0,-6.25123,-1.26036,0.197369
0,-4.75873,-0.00333087,0.397039
0,-5.02701,-0.201924,0.314306
0,-5.53127,-0.663656,0.596057
0,-5.76005,-0.850815,0.619805
0,-4.93706,-0.172659,0.504973
0,-5.85714,-0.903516,0.223807
0,-5.02184,-0.197836,0.315218
0,-5.6482,-0.759317,0.608626
0,-5.88674,-0.954517,0.631631
0,-5.7798,-0.8351,0.229758
0,-5.38814,-0.497528,0.265642
0,-5.31393,-0.485561,0.569565
0,-4.77733,-0.014583,0.383166
0,-4.85859,-0.0722032,0.351381
0,-5.54215,-0.628423,0.250178
0,-5.22857,-0.364729,0.284341
0,-4.90341,-0.105884,0.339526
0,-4.76927,-0.00946562,0.388309
0,-5.3589,-0.522467,0.57545
0,-4.79277,-0.0249102,0.375095
0,-5.05596,-0.224906,0.309367
0,-4.85436,-0.0690724,0.352624
0,-4.98418,-0.16823,0.322172
0,-4.98151,-0.166141,0.322688
0,-4.87475,-0.0842507,0.346851
0,-5.18826,-0.382133,0.551647
0,-4.76091,-0.00451927,0.394935
0,-5.52773,-0.616059,0.25154
0,-5.08499,-0.248097,0.304674
0,-4.8333,-0.0536272,0.359248
0,-5.28385,-0.410383,0.277487
0,-6.43939,-1.40887,0.675555
0,-4.77255,-0.0278292,0.447658
0,-6.91534,-1.80419,0.706395
0,-5.15829,-0.30726,0.293771
0,-5.62234,-0.697551,0.242883
0,-5.68311,-0.750353,0.237643
0,-4.9016,-0.142465,0.496169
0,-5.36938,-0.531067,0.576788
0,-7.41207,-2.38608,0.142684
0,-4.76265,-0.0179809,0.440185
0,-5.00105,-0.226597,0.518954
0,-5.19658,-0.388995,0.552911
0,-5.42351,-0.575433,0.583509
0,-4.96745,-0.198351,0.511872
0,-4.75002,-1.16334e-005,0.410649
0,-4.84846,-0.0965737,0.480759
0,-4.92239,-0.120372,0.33507
0,-5.47488,-0.570944,0.256674
0,-4.75266,-0.00695281,0.428662
0,-4.77897,-0.0156557,0.382213
0,-4.85456,-0.0692195,0.352565
0,-5.09943,-0.259684,0.302425
0,-4.93291,-0.169144,0.50399
0,-4.85275,-0.0678767,0.353106
0,-4.75204,-0.00616397,0.427558
0,-4.76141,-0.00479887,0.394482
0,-4.75202,-0.000324209,0.405864
0,-5.21603,-0.354425,0.285961
0,-5.23352,-0.368801,0.283708
0,-4.81597,-0.0678854,0.469177
0,-5.25147,-0.434215,0.560957
0,-5.07689,-0.289908,0.533344
0,-4.80161,-0.0549562,0.463165
0,-5.00066,-0.226273,0.518875
0,-6.17201,-1.18854,0.655641
0,-5.47157,-0.614799,0.589233
0,-5.10119,-0.310098,0.537585
0,-4.91582,-0.154612,0.499813
0,-6.65355,-1.5862,0.690075
0,-4.79207,-0.046227,0.458701
0,-5.50253,-0.594507,0.25396
0,-4.98227,-0.166734,0.322542
0,-6.14576,-1.16354,0.203892
0,-4.88776,-0.130605,0.492458
0,-4.74912,-0.000973164,0.416883
0,-5.76875,-0.857937,0.620644
0,-4.95118,-0.184614,0.508243
0,-4.86782,-0.113411,0.486765
0,-4.7933,-0.0473602,0.459303
0,-5.18774,-0.331261,0.289711
0,-5.76804,-0.857355,0.620575
0,-4.75551,-0.0103391,0.432812
0,-5.9684,-1.02142,0.638844
0,-5.41548,-0.520579,0.262738
0,-6.8809,-1.85757,0.164509
0,-4.76199,-0.00512629,0.393969
0,-4.74958,-0.0024475,0.420998
0,-5.69988,-0.764986,0.236238
0,-5.65646,-0.766073,0.609478
0,-4.74916,-0.00127504,0.417898
0,-6.01185,-1.04199,0.212723
0,-5.141,-0.293237,0.296233
0,-5.09078,-0.252739,0.303765
0,-5.40247,-0.509597,0.264111
0,-5.85601,-0.902511,0.223892
0,-6.45863,-1.45347,0.185497
0,-6.63971,-1.62499,0.176027
0,-5.73493,-0.830263,0.617359
0,-5.5282,-0.661144,0.595713
0,-4.85928,-0.0727148,0.351181
0,-4.85951,-0.1062,0.484251
0,-4.75167,-0.000225006,0.406534
0,-5.46976,-0.566587,0.257185
0,-5.41311,-0.566909,0.58224
0,-7.20026,-2.04311,0.722649
0,-4.89014,-0.0958294,0.342818
0,-5.45051,-0.550231,0.259123
0,-5.03159,-0.252155,0.524984
0,-4.87982,-0.123775,0.490244
0,-4.76451,-0.0198858,0.441764
0,-4.77815,-0.0332115,0.451187
0,-5.35941,-0.473394,0.268779
0,-6.70133,-1.68397,0.172973
0,-4.93223,-0.127923,0.332866
0,-6.81662,-1.79512,0.167467
0,-4.84752,-0.0957568,0.480455
0,-5.70376,-0.768381,0.235915
0,-5.96275,-0.997804,0.216131
0,-5.04472,-0.26312,0.527475
0,-7.7169,-2.69939,0.13192
0,-4.90504,-0.145409,0.497066
0,-4.98965,-0.217027,0.516607
0,-8.01265,-3.01028,0.122473
0,-4.74925,-0.000401123,0.414374
0,-5.27661,-0.404388,0.278359
0,-4.76143,-0.0167247,0.439099
0,-5.51549,-0.605589,0.252709
0,-6.04951,-1.08794,0.645727
0,-4.75893,-0.00343849,0.396834
0,-4.94834,-0.14035,0.329389
0,-4.83165,-0.0818165,0.475052
0,-4.78473,-0.0194695,0.37907
0,-4.78533,-0.0198674,0.378761
0,-5.95659,-0.992282,0.216565
0,-4.81739,-0.0421615,0.364854
0,-5.24914,-0.381672,0.281738
0,-5.78645,-0.872419,0.622338
0,-5.16792,-0.365336,0.548502
0,-5.10542,-0.264505,0.301507
0,-4.79636,-0.0273761,0.373443
0,-4.90081,-0.103906,0.340159
0,-4.80304,-0.0320166,0.370531
0,-5.14246,-0.294418,0.296023
0,-4.74923,-0.00156747,0.418772
0,-5.98675,-1.01938,0.214453
0,-5.53386,-0.665782,0.596347
0,-5.1286,-0.283196,0.298039
0,-8.33039,-3.01041,0.775629
0,-4.7686,-0.0239703,0.444916
0,-4.87778,-0.122014,0.489663
0,-7.72421,-2.48747,0.749198
0,-4.75464,-0.00132354,0.401772
0,-4.93968,-0.13366,0.331238
0,-7.77613,-2.53187,0.751626
0,-5.58705,-0.709295,0.602176
0,-6.18402,-1.19855,0.201485
0,-4.90383,-0.144378,0.496753
0,-4.92209,-0.120139,0.33514
0,-5.8198,-0.899713,0.625484
0,-5.88806,-0.93102,0.221508
0,-7.32623,-2.29916,0.145926
0,-4.74968,-8.3405e-005,0.411931
0,-5.35529,-0.519513,0.574988
0,-4.84231,-0.0602016,0.356318
0,-4.77017,-0.0255106,0.446034
0,-5.93115,-0.990895,0.635591
0,-4.82229,-0.0456702,0.363061
0,-5.2907,-0.466477,0.566426
0,-4.74923,-0.000445413,0.414616
0,-4.7959,-0.0497481,0.460548
0,-4.89032,-0.095965,0.342772
0,-4.975,-0.161057,0.32396
0,-6.49177,-1.48467,0.183705
0,-4.99729,-0.223448,0.518187
0,-5.65557,-0.726383,0.239989
0,-5.26475,-0.445146,0.562834
0,-6.96224,-1.93705,0.160874
0,-5.30399,-0.427112,0.275096
0,-4.8243,-0.0753121,0.472376
0,-4.87334,-0.0831915,0.347235
0,-5.63006,-0.704235,0.242205
0,-5.6362,-0.749504,0.60738
0,-4.94104,-0.176038,0.505909
0,-4.81461,-0.0666735,0.468639
0,-4.74935,-0.00028122,0.413643
0,-4.75042,-4.4554e-006,0.409414
0,-4.97337,-0.159787,0.324281
0,-5.72915,-0.825537,0.616791
0,-5.11509,-0.272289,0.300046
0,-4.90174,-0.142586,0.496206
0,-4.86253,-0.075127,0.350247
0,-5.47617,-0.618565,0.58977
0,-6.28415,-1.29077,0.195403
0,-4.92684,-0.123783,0.334065
0,-5.00929,-0.233506,0.520617
0,-4.93446,-0.129636,0.332376
0,-5.35171,-0.466947,0.269634
0,-4.75219,-0.00636271,0.427843
0,-5.21228,-0.351346,0.28645
0,-4.75718,-0.00253294,0.398675
0,-5.21684,-0.355094,0.285854
0,-4.75196,-0.000306075,0.405978
0,-4.83413,-0.0840045,0.475929
0,-5.26944,-0.398447,0.279231
0,-4.75831,-0.00310929,0.397471
0,-4.95643,-0.189049,0.50943
0,-4.75099,-0.00474179,0.425375
0,-6.56176,-1.55083,0.18001
0,-5.7032,-0.804305,0.614217
0,-4.88327,-0.126744,0.491213
0,-7.41911,-2.22789,0.734218
0,-4.79205,-0.046204,0.458689
0,-5.06963,-0.235805,0.307127
0,-6.11502,-1.1355,0.205863
0,-5.29147,-0.467113,0.566532
0,-5.41397,-0.519308,0.262896
0,-5.33121,-0.449801,0.271947
0,-4.92606,-0.163325,0.50234
0,-6.43284,-1.40346,0.675093
0,-4.74923,-0.00044396,0.414608
0,-5.17924,-0.374689,0.550263
0,-6.39593,-1.37298,0.672463
0,-4.82667,-0.0774086,0.473251
0,-5.37941,-0.539291,0.578057
0,-4.75764,-0.0127042,0.435318
0,-5.21976,-0.357491,0.285476
0,-4.81604,-0.0411935,0.365363
0,-5.08548,-0.248485,0.304597
0,-4.74914,-0.000681921,0.41574
0,-4.78267,-0.0374867,0.453793
0,-4.75072,-3.08746e-005,0.408643
0,-4.75997,-0.00400088,0.395813
0,-4.76408,-0.0194477,0.441408
0,-5.51989,-0.609353,0.252287
0,-5.11044,-0.317764,0.539158
0,-4.76008,-0.00405975,0.39571
0,-4.95613,-0.188802,0.509364
0,-5.00934,-0.233544,0.520626
0,-5.08643,-0.297836,0.535027
0,-7.71831,-2.48243,0.748921
0,-5.15301,-0.302977,0.294516
0,-5.7966,-0.880729,0.623302
0,-5.81354,-0.894592,0.624898
0,-5.24746,-0.43092,0.560387
0,-4.75228,-0.000404725,0.405393
0,-4.74929,-0.00034455,0.414045
0,-4.97709,-0.162691,0.323549
0,-4.84378,-0.0612794,0.355855
0,-4.78309,-0.0378813,0.454026
0,-6.29374,-1.28871,0.664979
0,-4.86323,-0.109429,0.485387
0,-4.85591,-0.103068,0.483133
0,-7.14429,-2.11685,0.153143
0,-4.90237,-0.105091,0.339779
0,-4.78512,-0.0397803,0.455131
0,-6.75623,-1.73677,0.170318
0,-5.17524,-0.321059,0.291414
0,-4.94946,-0.141212,0.329155
0,-4.78254,-0.018011,0.380231
0,-7.19139,-2.03564,0.722164
0,-5.62424,-0.699197,0.242715
0,-4.89362,-0.0984559,0.34194
0,-5.863,-0.908715,0.223368
0,-6.29591,-1.30166,0.194709
0,-5.73789,-0.798259,0.233112
0,-4.77612,-0.0312758,0.449952
0,-7.88823,-2.87867,0.126337
0,-5.41517,-0.568603,0.582493
0,-4.89525,-0.13703,0.494488
0,-5.68288,-0.787684,0.612173
0,-5.27276,-0.451733,0.563953
0,-4.82652,-0.0487134,0.361564
0,-5.3061,-0.479131,0.568515
0,-4.83586,-0.0554895,0.3584
0,-4.75222,-0.00038719,0.405491
0,-4.76554,-0.0071962,0.39105
0,-5.38992,-0.547903,0.579374
0,-5.20977,-0.349288,0.286779
0,-4.97681,-0.206238,0.513898
0,-4.99599,-0.177481,0.319929
0,-4.8373,-0.0867891,0.477028
0,-4.75393,-0.00850785,0.430669
0,-4.87384,-0.0835676,0.347098
0,-5.49328,-0.632565,0.591749
0,-5.32537,-0.494958,0.571086
0,-4.8083,-0.0357098,0.368368
0,-5.544,-0.630014,0.250004
0,-4.75,-0.00321812,0.422635
0,-5.0343,-0.207691,0.313037
0,-4.80783,-0.0605831,0.465859
0,-4.96625,-0.154239,0.325702
0,-5.26843,-0.397611,0.279354
0,-5.00442,-0.229422,0.519637
0,-5.19292,-0.385974,0.552356
0,-4.8035,-0.0323334,0.370341
0,-4.80619,-0.059099,0.465161
0,-7.08735,-2.06033,0.155503
0,-4.7492,-0.000500565,0.4149
0,-8.28818,-2.97368,0.773915
0,-4.761,-0.00456895,0.394853
0,-5.15341,-0.353346,0.54621
0,-5.54367,-0.673804,0.597438
0,-4.80222,-0.0314393,0.370881
0,-5.12028,-0.276478,0.299269
0,-6.38304,-1.36235,0.671536
0,-4.93177,-0.127566,0.332968
0,-4.86026,-0.106855,0.484483
0,-5.06511,-0.232196,0.307862
0,-4.94852,-0.182366,0.507637
0,-4.7534,-0.000806714,0.403547
0,-4.76411,-0.0194712,0.441427
0,-5.6238,-0.739361,0.606083
0,-5.52765,-0.615994,0.251548
0,-4.75271,-0.00702682,0.428762
0,-6.02169,-1.05086,0.212052
0,-5.14236,-0.294332,0.296038
0,-4.7579,-0.0129851,0.4356
0,-4.75729,-0.0123231,0.434931
0,-7.2578,-2.23029,0.148584
0,-4.77377,-0.0122935,0.385329
0,-4.89131,-0.096714,0.342521
0,-4.81016,-0.0626778,0.46683
0,-4.76216,-0.0174819,0.439758
0,-4.75044,-0.00393071,0.423982
0,-4.78882,-0.0222235,0.376995
0,-5.06829,-0.282756,0.531806
0,-5.16844,-0.365766,0.548584
0,-4.92785,-0.164841,0.502773
0,-5.56075,-0.6444,0.248445
0,-5.1198,-0.276093,0.299341
0,-5.31442,-0.435798,0.273878
0,-4.89492,-0.0994422,0.341614
0,-4.81034,-0.0628396,0.466904
0,-6.29664,-1.30234,0.194666
0,-5.05607,-0.272576,0.52958
0,-5.29497,-0.46999,0.567009
0,-5.39341,-0.501964,0.265076
0,-5.10671,-0.314674,0.538527
0,-5.94124,-0.97852,0.217655
0,-6.20471,-1.21754,0.200202
0,-5.48427,-0.62519,0.590709
0,-5.42316,-0.575145,0.583466
0,-5.17791,-0.373589,0.550057
0,-4.81465,-0.0667043,0.468653
0,-4.76468,-0.00668963,0.39172
0,-4.89033,-0.132812,0.493161
0,-4.88396,-0.0911658,0.344409
0,-5.17254,-0.318864,0.291785
0,-5.22932,-0.365343,0.284245
0,-5.29351,-0.468787,0.56681
0,-5.12545,-0.330211,0.54167
0,-4.80923,-0.0618414,0.466444
0,-4.79427,-0.0259361,0.374398
0,-4.87726,-0.121565,0.489514
0,-4.87249,-0.11745,0.488139
0,-4.90729,-0.108836,0.338592
0,-5.37088,-0.532296,0.576979
0,-5.20107,-0.342166,0.287926
0,-4.80911,-0.0362752,0.368048
0,-5.67259,-0.779271,0.611129
0,-5.87741,-0.921534,0.222295
0,-4.95778,-0.147659,0.327424
0,-5.57751,-0.701496,0.601147
0,-4.78028,-0.0165158,0.381472
0,-4.92268,-0.160448,0.501513
0,-4.75433,-0.0011907,0.402189
0,-5.46958,-0.566429,0.257203
0,-4.76431,-0.0196823,0.441599
0,-4.79681,-0.0276847,0.373242
0,-5.99639,-1.04437,0.64125
0,-4.75056,-1.37538e-005,0.409056
0,-5.82309,-0.902405,0.625792
0,-4.93187,-0.168256,0.50374
0,-6.94845,-1.83186,0.708359
0,-4.79457,-0.0485276,0.459915
0,-4.76732,-0.0226991,0.443965
0,-5.33549,-0.453375,0.271461
0,-4.95836,-0.148114,0.327304
0,-4.96156,-0.150592,0.326651
0,-4.88106,-0.0889864,0.345167
0,-4.77203,-0.0273298,0.447314
0,-4.79844,-0.052067,0.461729
0,-5.89726,-0.963134,0.632577
0,-5.4638,-0.561521,0.257781
0,-4.7851,-0.0197122,0.378882
0,-4.82415,-0.0470079,0.362397
0,-5.07003,-0.284205,0.532119
0,-6.5528,-1.54234,0.180477
0,-4.77555,-0.0307308,0.449598
0,-4.97737,-0.206702,0.514016
0,-4.75153,-0.00549438,0.426566
0,-5.28323,-0.460341,0.565402
0,-5.08639,-0.249218,0.304453
0,-5.5189,-0.608505,0.252382
0,-7.61243,-2.3921,0.743855
0,-5.31365,-0.485333,0.569528
0,-7.65567,-2.42894,0.745941
0,-4.8343,-0.0841552,0.475989
0,-6.00571,-1.05201,0.642044
0,-5.65738,-0.76683,0.609573
0,-5.06262,-0.230211,0.308269
0,-4.9155,-0.154335,0.499732
0,-4.95556,-0.145938,0.327882
0,-4.83524,-0.0550359,0.358605
0,-4.97,-0.200501,0.512428
0,-5.73474,-0.83011,0.61734
0,-4.75065,-0.00424789,0.424542
0,-4.84503,-0.0935784,0.479638
0,-5.1883,-0.331718,0.289636
0,-4.75189,-0.000286607,0.406104
0,-4.76749,-0.0228739,0.444097
0,-5.41656,-0.521488,0.262625
0,-4.88965,-0.0954555,0.342944
0,-4.79232,-0.0245999,0.375309
0,-4.94613,-0.13864,0.329857
0,-5.46384,-0.608469,0.588327
0,-4.83974,-0.0889341,0.477863
0,-5.84085,-0.889061,0.225036
0,-4.75966,-0.00383367,0.396109
0,-6.33829,-1.34099,0.19224
0,-4.88727,-0.130184,0.492323
0,-4.88803,-0.0942328,0.343357
0,-5.47936,-0.621171,0.59014
0,-5.15114,-0.35147,0.545848
0,-4.84311,-0.0607858,0.356067
0,-4.88367,-0.12709,0.491325
0,-5.39704,-0.553744,0.580261
0,-5.13393,-0.337232,0.543065
0,-4.97919,-0.164331,0.323139
0,-7.11803,-2.09075,0.154225
0,-4.77689,-0.0320043,0.450421
0,-4.78451,-0.0193223,0.379185
0,-4.86863,-0.0796752,0.348528
0,-5.02458,-0.2463,0.523631
0,-5.5914,-0.670802,0.245644
0,-4.81326,-0.0392199,0.366419
0,-4.74939,-0.000242372,0.413373
0,-4.75129,-0.00516484,0.426055
0,-4.81566,-0.0676118,0.469056
0,-4.82818,-0.0787472,0.473803
0,-4.82894,-0.0504628,0.360726
0,-5.05578,-0.272342,0.529529
0,-7.65606,-2.63628,0.13398
0,-4.77373,-0.0122688,0.385353
0,-4.97325,-0.203237,0.513132
0,-6.75461,-1.67019,0.696547
0,-4.79757,-0.0512738,0.461328
0,-4.82792,-0.0785169,0.473709
0,-5.10649,-0.265366,0.301344
0,-6.22446,-1.23569,0.198991
0,-4.87976,-0.123723,0.490227
0,-5.11293,-0.27055,0.30037
0,-5.69865,-0.800585,0.613762
0,-4.97793,-0.207174,0.514136
0,-4.81837,-0.0700347,0.47012
0,-5.16117,-0.359758,0.547441
0,-5.09276,-0.303093,0.536131
0,-5.99949,-1.03085,0.213572
0,-5.09709,-0.257802,0.302786
0,-6.10951,-1.1372,0.650652
0,-4.9504,-0.183959,0.508067
0,-6.35801,-1.35934,0.191108
0,-5.37734,-0.488443,0.266811
0,-5.0303,-0.204528,0.31373
0,-5.06135,-0.229194,0.308479
0,-8.12312,-3.12816,0.119168
0,-5.04937,-0.219658,0.310468
0,-5.17017,-0.316931,0.292113
0,-6.61329,-1.55281,0.687432
0,-4.84311,-0.0607828,0.356068
0,-4.97053,-0.157571,0.324845
0,-5.206,-0.346203,0.287274
0,-6.27225,-1.27101,0.663365
0,-5.75553,-0.847122,0.619368
0,-4.7987,-0.0289936,0.372401
0,-4.75869,-0.0138369,0.436437
0,-5.69107,-0.757302,0.236974
0,-4.82835,-0.0788946,0.473864
0,-4.75176,-0.000248781,0.406362
0,-5.28141,-0.40836,0.27778
0,-4.86196,-0.0747055,0.350409
0,-5.93516,-0.973077,0.218089
0,-4.76965,-0.025,0.445667
0,-4.80834,-0.0357323,0.368356
0,-4.96394,-0.152444,0.326168
0,-4.79816,-0.028622,0.372638
0,-6.13735,-1.15586,0.204429
0,-4.84587,-0.0628109,0.355203
0,-5.54493,-0.630807,0.249918
0,-4.85269,-0.100264,0.482117
0,-5.09631,-0.25718,0.302906
0,-4.86452,-0.0766065,0.349681
0,-6.06355,-1.09946,0.646892
0,-4.88278,-0.126324,0.491077
0,-4.76855,-0.0239161,0.444876
0,-6.5413,-1.49316,0.682608
0,-4.80114,-0.0545234,0.462952
0,-5.73255,-0.828317,0.617125
0,-5.06755,-0.28214,0.531672
0,-5.15749,-0.356723,0.54686
0,-6.01844,-1.04793,0.212273
0,-4.94661,-0.180752,0.507199
0,-4.9131,-0.15229,0.499128
0,-4.8062,-0.0342301,0.36922
0,-4.92957,-0.125874,0.333457
0,-5.20882,-0.399093,0.554749
0,-5.01217,-0.190207,0.316949
0,-4.91312,-0.152312,0.499135
0,-5.74488,-0.838402,0.618332
0,-5.4068,-0.56174,0.581466
0,-4.99132,-0.218432,0.516955
0,-5.0332,-0.2535,0.525292
0,-7.97451,-2.96981,0.123641
0,-4.88585,-0.0925941,0.343917
0,-4.95933,-0.148864,0.327106
0,-4.86465,-0.0767045,0.349644
0,-5.16211,-0.310371,0.293234
0,-4.86761,-0.113229,0.486703
0,-4.75097,-6.89468e-005,0.408029
0,-4.74944,-0.000206227,0.413102
0,-5.44515,-0.59316,0.586113
0,-6.2605,-1.26891,0.196812
0,-4.94872,-0.140638,0.329311
0,-4.78205,-0.0369038,0.453447
0,-4.81469,-0.040237,0.365871
0,-4.98763,-0.215338,0.516188
0,-6.24552,-1.25509,0.197713
0,-5.16212,-0.360548,0.547592
0,-4.76094,-0.0162133,0.438645
0,-4.87966,-0.0879365,0.345536
0,-4.74967,-8.69316e-005,0.411973
0,-6.28418,-1.28084,0.664263
0,-4.76011,-0.00407972,0.395676
0,-7.55129,-2.52827,0.137628
0,-5.16805,-0.315204,0.292407
0,-5.13939,-0.341746,0.543954
0,-6.36577,-1.3481,0.670287
0,-4.96364,-0.152208,0.326229
0,-5.24296,-0.427214,0.559742
0,-7.4032,-2.21442,0.733402
0,-4.92094,-0.119255,0.335403
0,-6.12303,-1.14829,0.651743
0,-4.75883,-0.00338484,0.396936
0,-5.08163,-0.245405,0.305205
0,-4.85628,-0.10339,0.483248
0,-4.76411,-0.01948,0.441434
0,-4.82865,-0.079162,0.473973
0,-4.74938,-0.00024946,0.413424
0,-4.92673,-0.123699,0.33409
0,-5.10607,-0.265029,0.301408
0,-4.75329,-0.000764253,0.403716
0,-4.8789,-0.12298,0.489982
0,-4.82757,-0.0494717,0.361199
0,-4.94791,-0.18185,0.507497
0,-5.46693,-0.564182,0.257467
0,-4.85338,-0.0683451,0.352917
0,-4.7573,-0.00259035,0.39855
0,-4.95837,-0.190694,0.509866
0,-5.66387,-0.733597,0.239277
0,-4.75589,-0.00189704,0.400178
0,-5.99561,-1.02735,0.213839
0,-4.75103,-8.00391e-005,0.407886
0,-4.74934,-0.000286979,0.413681
0,-5.19055,-0.384024,0.551997
0,-5.88222,-0.925812,0.221939
0,-5.45942,-0.557794,0.258222
0,-5.59844,-0.718611,0.603397
0,-5.50639,-0.59781,0.253586
0,-4.7583,-0.00310638,0.397477
0,-5.88237,-0.925945,0.221928
0,-5.85391,-0.927635,0.628644
0,-4.82669,-0.0774254,0.473258
0,-4.98532,-0.213395,0.515703
0,-4.76228,-0.0175995,0.439859
0,-5.68726,-0.753977,0.237294
0,-6.12439,-1.14404,0.205259
0,-4.88912,-0.0950577,0.343078
0,-5.25637,-0.438253,0.561654
0,-5.0516,-0.221428,0.310095
0,-5.10311,-0.311689,0.537913
0,-4.96596,-0.197092,0.511545
0,-5.35637,-0.470849,0.269116
0,-5.25196,-0.383999,0.281386
0,-4.92488,-0.162317,0.502051
0,-5.98799,-1.02049,0.214367
0,-4.91044,-0.111238,0.337842
0,-4.83521,-0.0849553,0.476306
0,-5.11048,-0.317798,0.539165
0,-7.92822,-2.92083,0.125079
0,-4.99835,-0.224331,0.518403
0,-5.07487,-0.239996,0.306282
0,-4.81431,-0.0399631,0.366018
0,-4.91851,-0.156899,0.500483
0,-4.75968,-0.00384235,0.396093
0,-4.86733,-0.112985,0.486619
0,-4.90578,-0.14604,0.497257
0,-5.17466,-0.320586,0.291494
0,-4.75367,-0.00819645,0.430282
0,-5.02338,-0.245292,0.523397
0,-5.38665,-0.545228,0.578966
0,-5.46598,-0.56337,0.257563
0,-4.89917,-0.102664,0.34056
0,-4.75383,-0.000979323,0.402903
0,-4.78755,-0.0420405,0.456413
0,-5.63816,-0.711257,0.241497
0,-4.82146,-0.0727825,0.471305
0,-5.22908,-0.365149,0.284275
0,-4.90701,-0.14709,0.497574
0,-4.80071,-0.0541362,0.462761
0,-6.57202,-1.56056,0.179478
0,-5.36925,-0.481654,0.267694
0,-4.88263,-0.12619,0.491033
0,-5.82666,-0.905328,0.626124
0,-4.7525,-0.000479093,0.404998
0,-5.02224,-0.198153,0.315147
0,-4.96775,-0.198607,0.511938
0,-4.79159,-0.0241036,0.375654
0,-4.84876,-0.0649387,0.354312
0,-5.3067,-0.479622,0.568596
0,-4.76639,-0.0217713,0.443255
0,-4.82698,-0.0490474,0.361403
0,-5.07766,-0.242223,0.305837
0,-4.82529,-0.0478275,0.361995
0,-5.48057,-0.575782,0.256111
0,-4.76012,-0.0153596,0.437871
0,-5.31286,-0.434494,0.27406
0,-4.86144,-0.107874,0.484842
0,-5.36569,-0.478662,0.268086
0,-5.77264,-0.828797,0.230324
0,-4.76942,-0.00955792,0.388205
0,-5.09044,-0.252463,0.303819
0,-4.95227,-0.185537,0.508491
0,-6.53519,-1.52567,0.181399
0,-5.15665,-0.305935,0.294001
0,-5.13996,-0.292389,0.296384
0,-4.82882,-0.0793117,0.474035
0,-5.0341,-0.207538,0.31307
0,-5.81917,-0.869854,0.226692
0,-7.2238,-2.06293,0.723929
0,-5.53142,-0.619221,0.25119
0,-6.25049,-1.25967,0.197413
0,-4.82804,-0.0498095,0.361037
0,-5.40537,-0.512047,0.263803
0,-5.75425,-0.84607,0.619243
0,-5.31679,-0.487914,0.569948
0,-4.77188,-0.0110942,0.386545
0,-5.7349,-0.830241,0.617356
0,-5.72175,-0.784119,0.234429
0,-4.76426,-0.0196298,0.441556
0,-4.74934,-0.000286145,0.413676
0,-4.79436,-0.0260012,0.374354
0,-5.27766,-0.455764,0.564633
0,-4.78793,-0.0423943,0.456611
0,-5.25147,-0.434222,0.560959
0,-7.27953,-2.10991,0.726925
0,-4.81308,-0.065302,0.468024
0,-4.76658,-0.0219594,0.4434
0,-5.16722,-0.314525,0.292522
0,-4.82695,-0.0776609,0.473355
0,-4.75157,-0.00554384,0.426641
0,-4.76985,-0.0251991,0.445811
0,-5.58065,-0.704057,0.601485
0,-4.86676,-0.112494,0.48645
0,-5.04679,-0.264845,0.527862
0,-6.02401,-1.06702,0.643592
0,-4.75154,-0.00551285,0.426594
0,-4.77262,-0.0115637,0.386061
0,-4.97827,-0.207466,0.51421
0,-4.7515,-0.00545018,0.426498
0,-6.15681,-1.17364,0.203192
0,-4.93749,-0.131968,0.331714
0,-5.29953,-0.473737,0.567628
0,-5.49072,-0.630473,0.591455
0,-4.75719,-0.0122092,0.434814
0,-5.03708,-0.256739,0.526032
0,-4.75319,-0.000727902,0.403864
0,-4.96996,-0.157132,0.324958
0,-4.75559,-0.00175696,0.400542
0,-5.34203,-0.508628,0.573271
0,-6.26317,-1.27138,0.196652
0,-4.75102,-7.71303e-005,0.407922
0,-4.7564,-0.0113332,0.433896
0,-5.7,-0.765097,0.236227
0,-5.52459,-0.613369,0.251839
0,-5.18189,-0.326482,0.290505
0,-5.21113,-0.400993,0.555092
0,-4.78254,-0.0180083,0.380233
0,-5.13309,-0.336531,0.542926
0,-5.17325,-0.36974,0.549334
0,-5.03768,-0.210377,0.312453
0,-4.74914,-0.00114912,0.417491
0,-5.10445,-0.263718,0.301656
0,-5.06507,-0.280072,0.531223
0,-4.88472,-0.0917402,0.34421
0,-5.37537,-0.486792,0.267025
0,-7.2307,-2.06875,0.724303
0,-7.69068,-2.45882,0.747612
0,-6.10441,-1.13301,0.650239
0,-6.7731,-1.68558,0.697708
0,-5.33612,-0.453899,0.271389
0,-5.41514,-0.568576,0.582489
0,-5.66725,-0.774897,0.610584
0,-5.38836,-0.546628,0.57918
0,-5.24901,-0.432192,0.560607
0,-6.6624,-1.59356,0.690651
0,-5.5619,-0.68872,0.599446
0,-4.79738,-0.0280782,0.372987
0,-5.31283,-0.434472,0.274063
0,-6.52977,-1.48361,0.681824
0,-4.74981,-4.48375e-005,0.411385
0,-5.28066,-0.407743,0.27787
0,-4.77876,-0.0155153,0.382335
0,-4.83048,-0.0515805,0.360199
0,-4.7728,-0.0116797,0.385943
0,-6.06766,-1.10284,0.647232
0,-5.40459,-0.511391,0.263885
0,-4.81404,-0.0661613,0.46841
0,-4.86896,-0.0799201,0.348437
0,-4.95824,-0.148021,0.327329
0,-5.60555,-0.683021,0.244373
0,-6.73405,-1.65309,0.695249
0,-5.67765,-0.7456,0.238104
0,-4.83671,-0.086278,0.476828
0,-5.04757,-0.218226,0.310771
0,-5.13871,-0.341184,0.543844
0,-5.08516,-0.248229,0.304647
0,-4.77217,-0.0274635,0.447406
0,-5.36468,-0.527215,0.57619
0,-5.24173,-0.375565,0.282667
0,-4.96247,-0.151303,0.326465
0,-4.76761,-0.00844614,0.389494
0,-6.8677,-1.76442,0.703531
